{"learner":{"attributes":{"scikit_learn":"{\"_estimator_type\": \"classifier\"}"},"feature_names":[],"feature_types":[],"gradient_booster":{"model":{"cats":{"enc":[],"feature_segments":[],"sorted_idx":[]},"gbtree_model_param":{"num_parallel_tree":"1","num_trees":"200"},"iteration_indptr":[0,1,2,3,4,5,6,7,8,9,10,11,12,13,14,15,16,17,18,19,20,21,22,23,24,25,26,27,28,29,30,31,32,33,34,35,36,37,38,39,40,41,42,43,44,45,46,47,48,49,50,51,52,53,54,55,56,57,58,59,60,61,62,63,64,65,66,67,68,69,70,71,72,73,74,75,76,77,78,79,80,81,82,83,84,85,86,87,88,89,90,91,92,93,94,95,96,97,98,99,100,101,102,103,104,105,106,107,108,109,110,111,112,113,114,115,116,117,118,119,120,121,122,123,124,125,126,127,128,129,130,131,132,133,134,135,136,137,138,139,140,141,142,143,144,145,146,147,148,149,150,151,152,153,154,155,156,157,158,159,160,161,162,163,164,165,166,167,168,169,170,171,172,173,174,175,176,177,178,179,180,181,182,183,184,185,186,187,188,189,190,191,192,193,194,195,196,197,198,199,200],"tree_info":[0,0,0,0,0,0,0,0,0,0,0,0,0,0,0,0,0,0,0,0,0,0,0,0,0,0,0,0,0,0,0,0,0,0,0,0,0,0,0,0,0,0,0,0,0,0,0,0,0,0,0,0,0,0,0,0,0,0,0,0,0,0,0,0,0,0,0,0,0,0,0,0,0,0,0,0,0,0,0,0,0,0,0,0,0,0,0,0,0,0,0,0,0,0,0,0,0,0,0,0,0,0,0,0,0,0,0,0,0,0,0,0,0,0,0,0,0,0,0,0,0,0,0,0,0,0,0,0,0,0,0,0,0,0,0,0,0,0,0,0,0,0,0,0,0,0,0,0,0,0,0,0,0,0,0,0,0,0,0,0,0,0,0,0,0,0,0,0,0,0,0,0,0,0,0,0,0,0,0,0,0,0,0,0,0,0,0,0,0,0,0,0,0,0,0,0,0,0,0,0],"trees":[{"base_weights":[-1.7333025E-2,-7.6329E-2,1.8926765E-1,-1.3704341E-2,-2.7555534E-1,4.491478E-1,-2.1236377E-2,-1.5540503E-1,1.3764952E-1,-6.603922E-1,-1.320267E-1,-3.629679E-1,5.1043516E-1,-1.3499075E-1,6.976435E-1,-3.4620672E-1,7.861592E-2,1.6991213E-1,-9.8831594E-1,-3.3461785E-1,-1.0901257E0,2.6259783E-1,-2.7970192E-1,1.7933711E-1,-5.8256287E-2,5.749303E-1,-3.9117953E-1,5.723831E-2,-1.7818613E-1,6.480061E-2,2.4064003E-1,-1.2064225E-2,-5.956921E-2,4.0822368E-2,-1.9076875E-3,1.4175432E-2,-7.116376E-3,-6.992496E-2,-1.7693235E-2,-2.2951651E-2,3.7211414E-2,-6.365925E-2,6.088991E-3,-4.470022E-3,4.588602E-2,-2.2959039E-2,5.8438918E-3,-3.0326514E-2,5.2993156E-2,2.2118187E-2,5.322751E-2,1.3532907E-2,-4.8534263E-2,-1.9471435E-2,4.953805E-3,-1.4816514E-2,3.7623096E-2],"categories":[],"categories_nodes":[],"categories_segments":[],"categories_sizes":[],"default_left":[0,0,0,0,0,0,0,0,0,0,0,0,0,0,0,0,0,0,0,0,0,0,0,0,0,0,0,0,0,0,0,0,0,0,0,0,0,0,0,0,0,0,0,0,0,0,0,0,0,0,0,0,0,0,0,0,0],"id":0,"left_children":[1,3,5,7,9,11,13,15,17,19,21,23,25,27,29,31,33,35,37,39,41,43,45,47,-1,49,51,-1,53,-1,55,-1,-1,-1,-1,-1,-1,-1,-1,-1,-1,-1,-1,-1,-1,-1,-1,-1,-1,-1,-1,-1,-1,-1,-1,-1,-1],"loss_changes":[8.129121E0,6.466389E0,8.115292E0,8.506122E0,6.7605352E0,3.4878416E0,6.866553E0,9.171545E0,7.1361637E0,4.314913E0,5.408459E0,2.488637E0,3.836752E0,4.2029057E0,2.8264518E0,9.733032E0,8.025949E0,6.6848917E0,9.3382597E-1,3.0873759E0,3.2545013E0,5.949751E0,4.829814E0,3.4060993E0,0E0,3.3178024E0,2.0813136E0,0E0,4.187846E0,0E0,2.3487825E0,0E0,0E0,0E0,0E0,0E0,0E0,0E0,0E0,0E0,0E0,0E0,0E0,0E0,0E0,0E0,0E0,0E0,0E0,0E0,0E0,0E0,0E0,0E0,0E0,0E0,0E0],"parents":[2147483647,0,0,1,1,2,2,3,3,4,4,5,5,6,6,7,7,8,8,9,9,10,10,11,11,12,12,13,13,14,14,15,15,16,16,17,17,18,18,19,19,20,20,21,21,22,22,23,23,25,25,26,26,28,28,30,30],"right_children":[2,4,6,8,10,12,14,16,18,20,22,24,26,28,30,32,34,36,38,40,42,44,46,48,-1,50,52,-1,54,-1,56,-1,-1,-1,-1,-1,-1,-1,-1,-1,-1,-1,-1,-1,-1,-1,-1,-1,-1,-1,-1,-1,-1,-1,-1,-1,-1],"split_conditions":[4.070525E-3,3.6166736E-3,2.3273197E4,2.7837562E-3,-3.3541416E1,3.1688123E-3,2.482711E4,2.163778E-3,2.5810717E4,-6.460279E1,1.6543125E0,-1.3816175E0,1.0327123E-2,4.086317E-3,2.4677138E-3,2.5163168E4,2.3601418E-3,3.4440542E-3,2.2756506E-3,-6.6430244E1,2.4814953E4,1.4524686E1,3.6253144E-3,-5.1981934E1,-5.8256287E-2,6.0309144E-3,-9.8311905E1,5.723831E-2,3.8967347E-3,6.480061E-2,5.530763E-3,-1.2064225E-2,-5.956921E-2,4.0822368E-2,-1.9076875E-3,1.4175432E-2,-7.116376E-3,-6.992496E-2,-1.7693235E-2,-2.2951651E-2,3.7211414E-2,-6.365925E-2,6.088991E-3,-4.470022E-3,4.588602E-2,-2.2959039E-2,5.8438918E-3,-3.0326514E-2,5.2993156E-2,2.2118187E-2,5.322751E-2,1.3532907E-2,-4.8534263E-2,-1.9471435E-2,4.953805E-3,-1.4816514E-2,3.7623096E-2],"split_indices":[6,10,1,6,4,10,1,8,1,5,9,9,8,6,8,2,8,6,8,5,2,4,6,4,0,8,4,0,8,0,8,0,0,0,0,0,0,0,0,0,0,0,0,0,0,0,0,0,0,0,0,0,0,0,0,0,0],"split_type":[0,0,0,0,0,0,0,0,0,0,0,0,0,0,0,0,0,0,0,0,0,0,0,0,0,0,0,0,0,0,0,0,0,0,0,0,0,0,0,0,0,0,0,0,0,0,0,0,0,0,0,0,0,0,0,0,0],"sum_hessian":[6.6475885E2,5.175889E2,1.4716988E2,3.946148E2,1.22974144E2,6.53534E1,8.1816475E1,2.0379286E2,1.9082196E2,3.242726E1,9.054689E1,4.240488E0,6.111291E1,7.133997E1,1.04765E1,1.11998764E2,9.179409E1,1.8633203E2,4.4899282E0,1.9456356E1,1.2970904E1,2.4445166E1,6.610172E1,2.9932857E0,1.2472023E0,5.7371307E1,3.741607E0,1.4966428E0,6.984333E1,3.741607E0,6.7348924E0,1.0077395E2,1.1224821E1,1.17237015E1,8.007039E1,1.3669337E2,4.9638653E1,1.9955237E0,2.4944046E0,1.7959713E1,1.4966428E0,1.1224821E1,1.7460833E0,1.646307E1,7.982095E0,4.5398163E1,2.0703558E1,1.7460833E0,1.2472023E0,4.6645367E1,1.072594E1,1.9955237E0,1.7460833E0,3.9411594E1,3.0431736E1,3.4921665E0,3.242726E0],"tree_param":{"num_deleted":"0","num_feature":"11","num_nodes":"57","size_leaf_vector":"1"}},{"base_weights":[-5.639997E-3,-8.14566E-2,2.3937352E-1,-2.9775998E-1,1.1226721E-2,4.188335E-1,4.0116567E-2,-7.542471E-1,-1.1749901E-1,4.1894954E-2,-4.3397534E-1,8.084455E-1,3.380058E-1,9.14734E-1,-4.6655506E-2,-1.0997019E0,-4.0226975E-1,1.3636003E-2,-8.064597E-1,8.4007615E-1,2.8706007E-2,-1.3801805E0,9.603117E-2,6.371327E-2,3.7036523E-1,1.0284832E0,2.4708848E-1,2.7837297E-1,6.9584E-2,-2.682555E-1,2.0247667E-1,-6.429889E-2,1.1294204E-2,-3.998423E-2,-2.0896846E-3,-4.9178142E-2,4.7247224E-3,-4.453897E-2,8.966032E-3,5.934265E-2,-2.552628E-3,-3.250522E-2,2.5221182E-3,-2.8364984E-3,-8.277855E-2,2.3577904E-2,-4.84082E-2,-5.8907904E-2,4.000915E-2,2.0759039E-2,6.5647624E-2,-2.4054427E-2,1.5989972E-2,4.6541944E-2,-3.5729107E-2,-2.4647875E-2,1.5520575E-2,5.798864E-2,-1.1548842E-3],"categories":[],"categories_nodes":[],"categories_segments":[],"categories_sizes":[],"default_left":[0,0,0,0,0,0,0,0,0,0,0,0,0,0,0,0,0,0,0,0,0,0,0,0,0,0,0,0,0,0,0,0,0,0,0,0,0,0,0,0,0,0,0,0,0,0,0,0,0,0,0,0,0,0,0,0,0,0,0],"id":1,"left_children":[1,3,5,7,9,11,13,15,17,19,21,23,25,27,29,31,33,35,37,39,41,43,45,-1,47,49,51,53,-1,55,57,-1,-1,-1,-1,-1,-1,-1,-1,-1,-1,-1,-1,-1,-1,-1,-1,-1,-1,-1,-1,-1,-1,-1,-1,-1,-1,-1,-1],"loss_changes":[1.2561774E1,1.0355474E1,5.6977577E0,1.2659868E1,4.9668746E0,2.371254E0,5.873761E0,4.868149E0,1.0152672E1,3.5551286E0,1.1890856E1,2.3257294E0,4.2196903E0,1.7320914E0,3.965797E0,5.590687E0,3.291607E0,7.7760844E0,1.6530876E0,1.757554E0,4.983186E0,2.997879E0,6.836075E0,0E0,6.583498E0,8.46385E-1,3.55779E0,3.413239E0,0E0,5.0846076E0,7.3521852E0,0E0,0E0,0E0,0E0,0E0,0E0,0E0,0E0,0E0,0E0,0E0,0E0,0E0,0E0,0E0,0E0,0E0,0E0,0E0,0E0,0E0,0E0,0E0,0E0,0E0,0E0,0E0,0E0],"parents":[2147483647,0,0,1,1,2,2,3,3,4,4,5,5,6,6,7,7,8,8,9,9,10,10,11,11,12,12,13,13,14,14,15,15,16,16,17,17,18,18,19,19,20,20,21,21,22,22,24,24,25,25,26,26,27,27,29,29,30,30],"right_children":[2,4,6,8,10,12,14,16,18,20,22,24,26,28,30,32,34,36,38,40,42,44,46,-1,48,50,52,54,-1,56,58,-1,-1,-1,-1,-1,-1,-1,-1,-1,-1,-1,-1,-1,-1,-1,-1,-1,-1,-1,-1,-1,-1,-1,-1,-1,-1,-1,-1],"split_conditions":[4.0187533E-3,4.3024345E1,2.3501877E4,2.022403E-3,3.8204219E-3,4.8557943E-4,3.1688123E-3,-7.671899E0,5.787985E0,6.5914646E-4,5.764415E1,-9.513537E0,2.1581766E4,5.596338E1,1.4963578E-3,9.9342E-4,2.5504478E-3,2.1973653E-3,4.475844E-3,2.1713875E-4,8.442367E-4,4.7507965E1,8.000624E1,6.371327E-2,-5.3925583E1,1.6509014E-3,3.318584E-3,-1.6085585E1,6.9584E-2,2.4596334E4,3.1322322E-3,-6.429889E-2,1.1294204E-2,-3.998423E-2,-2.0896846E-3,-4.9178142E-2,4.7247224E-3,-4.453897E-2,8.966032E-3,5.934265E-2,-2.552628E-3,-3.250522E-2,2.5221182E-3,-2.8364984E-3,-8.277855E-2,2.3577904E-2,-4.84082E-2,-5.8907904E-2,4.000915E-2,2.0759039E-2,6.5647624E-2,-2.4054427E-2,1.5989972E-2,4.6541944E-2,-3.5729107E-2,-2.4647875E-2,1.5520575E-2,5.798864E-2,-1.1548842E-3],"split_indices":[6,3,1,8,6,7,10,9,9,8,3,9,1,3,7,7,6,10,10,7,8,3,3,0,5,7,10,5,0,1,8,0,0,0,0,0,0,0,0,0,0,0,0,0,0,0,0,0,0,0,0,0,0,0,0,0,0,0,0],"split_type":[0,0,0,0,0,0,0,0,0,0,0,0,0,0,0,0,0,0,0,0,0,0,0,0,0,0,0,0,0,0,0,0,0,0,0,0,0,0,0,0,0,0,0,0,0,0,0,0,0,0,0,0,0,0,0,0,0,0,0],"sum_hessian":[6.741838E2,5.153746E2,1.5880917E2,1.539275E2,3.6144708E2,8.297558E1,7.5833595E1,4.267486E1,1.1125264E2,3.3900058E2,2.244653E1,1.2709616E1,7.026596E1,5.983294E0,6.98503E1,2.0464874E1,2.2209982E1,9.428658E1,1.6966059E1,4.4913816E0,3.345092E2,7.4830956E0,1.4963434E1,5.234701E0,7.474914E0,6.9757667E0,6.3290195E1,3.241717E0,2.741577E0,3.6927227E1,3.2923073E1,1.7969604E1,2.4952698E0,9.984232E0,1.2225751E1,6.2345133E0,8.805207E1,1.5717977E1,1.2480811E0,2.9943118E0,1.4970701E0,9.482083E0,3.250271E2,1.4966427E0,5.9864526E0,1.1472111E1,3.4913232E0,1.2457459E0,6.2291684E0,2.9896705E0,3.9860961E0,5.2360806E0,5.805411E1,1.9940159E0,1.2477012E0,2.6705383E1,1.0221845E1,5.4886847E0,2.743439E1],"tree_param":{"num_deleted":"0","num_feature":"11","num_nodes":"59","size_leaf_vector":"1"}},{"base_weights":[-4.2200433E-3,-2.1481948E-2,8.1284875E-1,-1.022157E-1,1.2493222E-1,1.1332655E0,1.5575588E-1,9.685448E-2,-1.5756688E-1,3.1855285E-1,1.4024979E-3,7.5351293E-3,1.2677957E0,5.6212515E-1,-3.6225785E-2,8.608199E-3,4.3707725E-1,-4.8304942E-1,-1.0459222E-1,-5.192334E-1,4.188839E-1,1.6941728E-1,-2.4215242E-1,7.112911E-2,1.7966015E-2,-4.6798517E-3,5.615701E-2,-8.820589E-3,1.5278183E-2,3.3081032E-2,-2.9185405E-2,-5.286031E-2,6.223395E-3,2.6512546E-2,-7.220139E-3,3.9719272E-2,-5.2274305E-2,1.4370975E-2,3.6373947E-2,1.6052153E-2,-1.9696875E-2,-6.932651E-2,-8.907638E-3],"categories":[],"categories_nodes":[],"categories_segments":[],"categories_sizes":[],"default_left":[0,0,0,0,0,0,0,0,0,0,0,0,0,0,0,0,0,0,0,0,0,0,0,0,0,0,0,0,0,0,0,0,0,0,0,0,0,0,0,0,0,0,0],"id":2,"left_children":[1,3,5,7,9,11,13,15,17,19,21,-1,23,25,-1,27,29,31,33,35,37,39,41,-1,-1,-1,-1,-1,-1,-1,-1,-1,-1,-1,-1,-1,-1,-1,-1,-1,-1,-1,-1],"loss_changes":[9.504042E0,7.8104053E0,2.7588215E0,4.706563E0,5.618137E0,1.026679E0,2.4567163E0,2.7957828E0,5.6999655E0,7.9080505E0,5.950727E0,0E0,6.093073E-1,1.7542324E0,0E0,4.1779575E0,4.7834787E0,1.6318754E1,7.357936E0,7.9036183E0,3.1281996E0,7.4768424E0,4.1010346E0,0E0,0E0,0E0,0E0,0E0,0E0,0E0,0E0,0E0,0E0,0E0,0E0,0E0,0E0,0E0,0E0,0E0,0E0,0E0,0E0],"parents":[2147483647,0,0,1,1,2,2,3,3,4,4,5,5,6,6,7,7,8,8,9,9,10,10,12,12,13,13,15,15,16,16,17,17,18,18,19,19,20,20,21,21,22,22],"right_children":[2,4,6,8,10,12,14,16,18,20,22,-1,24,26,-1,28,30,32,34,36,38,40,42,-1,-1,-1,-1,-1,-1,-1,-1,-1,-1,-1,-1,-1,-1,-1,-1,-1,-1,-1,-1],"split_conditions":[6.055489E-3,6.2349125E1,4.0437616E-3,-6.460279E1,2.3240043E4,4.475844E-3,2.2777512E4,3.0501746E-3,-8.777241E0,2.4181681E-3,7.457188E1,7.5351293E-3,9.092407E1,2.2603504E4,-3.6225785E-2,2.4248326E4,4.7216858E1,1.1324328E-3,-4.1570827E1,6.692278E1,2.25181E4,2.0350798E-3,1.6546134E-3,7.112911E-2,1.7966015E-2,-4.6798517E-3,5.615701E-2,-8.820589E-3,1.5278183E-2,3.3081032E-2,-2.9185405E-2,-5.286031E-2,6.223395E-3,2.6512546E-2,-7.220139E-3,3.9719272E-2,-5.2274305E-2,1.4370975E-2,3.6373947E-2,1.6052153E-2,-1.9696875E-2,-6.932651E-2,-8.907638E-3],"split_indices":[6,3,7,5,1,10,0,7,9,6,3,0,5,0,0,0,3,7,5,3,1,7,6,0,0,0,0,0,0,0,0,0,0,0,0,0,0,0,0,0,0,0,0],"split_type":[0,0,0,0,0,0,0,0,0,0,0,0,0,0,0,0,0,0,0,0,0,0,0,0,0,0,0,0,0,0,0,0,0,0,0,0,0,0,0,0,0,0,0],"sum_hessian":[6.716085E2,6.586668E2,1.2941696E1,4.2475558E2,2.3391121E2,8.212425E0,4.729271E0,9.224547E1,3.3251013E2,9.049324E1,1.4341797E2,1.244348E0,6.968077E0,3.4828594E0,1.2464116E0,7.406098E1,1.8184483E1,4.5406807E1,2.8710333E2,9.231658E0,8.126158E1,8.50507E1,5.8367268E1,5.470166E0,1.4979107E0,1.990039E0,1.4928204E0,4.5880672E1,2.8180311E1,1.5194076E1,2.9904072E0,2.2963806E1,2.2443E1,1.6214691E1,2.7088864E2,2.4947677E0,6.7368903E0,5.8339703E1,2.292188E1,6.735292E1,1.7697775E1,1.9968565E0,5.637041E1],"tree_param":{"num_deleted":"0","num_feature":"11","num_nodes":"43","size_leaf_vector":"1"}},{"base_weights":[4.0065995E-3,-6.260223E-2,3.0199194E-1,-8.443083E-2,6.4571476E-1,5.659797E-1,-5.217146E-2,1.9286692E-2,-1.9046892E-1,1.396188E-1,1.0929816E0,7.004514E-1,-2.334302E-2,-3.3405626E-1,2.7028677E-1,-2.1427312E-1,3.1008834E-1,-1.03639394E-1,-4.7027773E-1,5.2563813E-2,-1.431268E-1,1.207557E0,1.6133238E-2,5.2975845E-1,9.681441E-1,5.4646727E-2,-3.853568E-1,1.6964639E-2,-1.0369952E0,8.8374245E-1,5.642331E-3,-4.441169E-2,-5.582192E-3,-3.2168314E-2,2.1461504E-2,-1.4024193E-2,2.8741888E-3,-4.2905655E-2,-8.7163765E-3,-2.3958523E-2,3.7672114E-2,2.3746615E-2,6.7699574E-2,4.9471628E-2,1.3158808E-2,5.9893217E-2,2.4822645E-2,4.5786347E-2,-3.7804782E-2,3.58557E-2,-1.7942807E-2,6.349921E-3,-6.536357E-2,5.9915572E-2,3.9401893E-3,-1.623087E-2,3.0926112E-2],"categories":[],"categories_nodes":[],"categories_segments":[],"categories_sizes":[],"default_left":[0,0,0,0,0,0,0,0,0,0,0,0,0,0,0,0,0,0,0,0,0,0,0,0,0,0,0,0,0,0,0,0,0,0,0,0,0,0,0,0,0,0,0,0,0,0,0,0,0,0,0,0,0,0,0,0,0],"id":3,"left_children":[1,3,5,7,9,11,13,15,17,19,21,23,25,27,29,31,33,35,37,-1,39,41,-1,43,45,-1,47,49,51,53,55,-1,-1,-1,-1,-1,-1,-1,-1,-1,-1,-1,-1,-1,-1,-1,-1,-1,-1,-1,-1,-1,-1,-1,-1,-1,-1],"loss_changes":[1.3470299E1,8.631379E0,1.162136E1,5.931836E0,3.6275449E0,5.652378E0,4.986326E0,1.8635687E1,6.428996E0,2.465488E0,3.798666E-1,2.1345272E0,6.1517625E0,7.2194786E0,4.1635633E0,1.0429216E1,1.4156021E1,5.850528E0,7.0654926E0,0E0,2.6915324E0,1.3206768E-1,0E0,4.345643E0,1.7188454E0,0E0,6.214206E0,5.6384845E0,3.2292633E0,1.8634014E0,4.0353503E0,0E0,0E0,0E0,0E0,0E0,0E0,0E0,0E0,0E0,0E0,0E0,0E0,0E0,0E0,0E0,0E0,0E0,0E0,0E0,0E0,0E0,0E0,0E0,0E0,0E0,0E0],"parents":[2147483647,0,0,1,1,2,2,3,3,4,4,5,5,6,6,7,7,8,8,9,9,10,10,11,11,12,12,13,13,14,14,15,15,16,16,17,17,18,18,20,20,21,21,23,23,24,24,26,26,27,27,28,28,29,29,30,30],"right_children":[2,4,6,8,10,12,14,16,18,20,22,24,26,28,30,32,34,36,38,-1,40,42,-1,44,46,-1,48,50,52,54,56,-1,-1,-1,-1,-1,-1,-1,-1,-1,-1,-1,-1,-1,-1,-1,-1,-1,-1,-1,-1,-1,-1,-1,-1,-1,-1],"split_conditions":[4.208326E-3,9.126695E1,2.3847203E4,2.4677138E-3,1.75655E1,5.1873722E1,3.8967347E-3,2.8620989E-3,6.4194534E1,3.737985E0,9.639731E1,5.155244E-3,1.8555934E-3,2.830974E-3,4.9028085E-3,-7.1671953E0,1.215441E-4,1.8188028E-3,1.5179923E1,5.2563813E-2,2.4647967E4,9.209244E1,1.6133238E-2,2.2103652E4,3.8665698E-3,5.4646727E-2,4.344403E-3,-4.5916348E1,4.30099E-3,2.2770332E-3,7.731838E-3,-4.441169E-2,-5.582192E-3,-3.2168314E-2,2.1461504E-2,-1.4024193E-2,2.8741888E-3,-4.2905655E-2,-8.7163765E-3,-2.3958523E-2,3.7672114E-2,2.3746615E-2,6.7699574E-2,4.9471628E-2,1.3158808E-2,5.9893217E-2,2.4822645E-2,4.5786347E-2,-3.7804782E-2,3.58557E-2,-1.7942807E-2,6.349921E-3,-6.536357E-2,5.9915572E-2,3.9401893E-3,-1.623087E-2,3.0926112E-2],"split_indices":[6,3,2,8,9,5,8,6,5,9,3,6,8,8,8,9,7,7,9,0,0,3,0,0,7,0,6,5,6,7,8,0,0,0,0,0,0,0,0,0,0,0,0,0,0,0,0,0,0,0,0,0,0,0,0,0,0],"split_type":[0,0,0,0,0,0,0,0,0,0,0,0,0,0,0,0,0,0,0,0,0,0,0,0,0,0,0,0,0,0,0,0,0,0,0,0,0,0,0,0,0,0,0,0,0,0,0,0,0,0,0,0,0,0,0,0,0],"sum_hessian":[6.767049E2,5.537212E2,1.2298369E2,5.380215E2,1.5699711E1,7.011958E1,5.28641E1,2.7240042E2,2.6562103E2,7.98106E0,7.718651E0,5.6938736E1,1.3180851E1,2.8187412E1,2.4676687E1,1.5121443E2,1.21186E2,2.037609E2,6.1860146E1,1.2458769E0,6.735183E0,6.2251267E0,1.4935241E0,3.6587734E1,2.0351002E1,2.7333782E0,1.0447473E1,1.945046E1,8.736952E0,6.7320914E0,1.7944597E1,1.897195E1,1.322425E2,1.297234E1,1.0821365E2,9.678808E1,1.0697281E2,2.5951645E1,3.59085E1,5.237619E0,1.4975642E0,1.7438409E0,4.481286E0,1.2434716E1,2.4153017E1,1.26505165E1,7.7004857E0,1.9908189E0,8.456654E0,6.476568E0,1.2973892E1,1.7463018E0,6.9906507E0,4.48907E0,2.2430215E0,1.1966568E1,5.978028E0],"tree_param":{"num_deleted":"0","num_feature":"11","num_nodes":"57","size_leaf_vector":"1"}},{"base_weights":[1.9001642E-2,3.7553597E-2,-5.7861596E-1,9.451355E-1,2.744207E-2,-1.0789979E0,-2.425616E-2,-1.0924335E-3,1.2017514E0,-1.9756204E-1,6.9288075E-2,-1.2616161E0,8.615789E-3,1.0041418E0,-6.040717E-1,2.4150632E-2,6.977064E-2,-5.5405295E-1,2.0120883E-2,-5.593542E-2,7.619724E-2,-1.1274276E-2,-6.9567114E-2,6.42435E-2,9.167207E-3,2.4390168E-2,-7.1632065E-2,-4.1056618E-2,4.9287495E-3,-3.7910633E-2,7.366924E-3,1.7663715E-2,2.2422944E-3,-3.1756453E-2,4.273674E-2],"categories":[],"categories_nodes":[],"categories_segments":[],"categories_sizes":[],"default_left":[0,0,0,0,0,0,0,0,0,0,0,0,0,0,0,0,0,0,0,0,0,0,0,0,0,0,0,0,0,0,0,0,0,0,0],"id":4,"left_children":[1,3,5,7,9,11,13,-1,15,17,19,21,-1,23,25,-1,-1,27,29,-1,31,-1,-1,-1,-1,33,-1,-1,-1,-1,-1,-1,-1,-1,-1],"loss_changes":[7.5364585E0,6.015579E0,5.6516023E0,1.8188062E0,6.1536064E0,2.670474E0,7.0067377E0,0E0,1.2310982E-1,7.966857E0,4.6044855E0,9.6158695E-1,0E0,7.426553E-1,3.9341638E0,0E0,0E0,6.8617973E0,6.5099225E0,0E0,4.747435E0,0E0,0E0,0E0,0E0,3.41326E0,0E0,0E0,0E0,0E0,0E0,0E0,0E0,0E0,0E0],"parents":[2147483647,0,0,1,1,2,2,3,3,4,4,5,5,6,6,8,8,9,9,10,10,11,11,13,13,14,14,17,17,18,18,20,20,25,25],"right_children":[2,4,6,8,10,12,14,-1,16,18,20,22,-1,24,26,-1,-1,28,30,-1,32,-1,-1,-1,-1,34,-1,-1,-1,-1,-1,-1,-1,-1,-1],"split_conditions":[2.5740555E4,6.5914646E-4,2.2756506E-3,-1.8253931E1,2.756263E-4,3.0365568E-3,9.614606E-4,-1.0924335E-3,2.0159506E-3,1.0582375E-1,7.577485E-4,2.3300927E-3,8.615789E-3,3.0448276E-3,4.1877953E1,2.4150632E-2,6.977064E-2,3.7974685E-3,1.943531E-3,-5.593542E-2,4.3209313E-4,-1.1274276E-2,-6.9567114E-2,6.42435E-2,9.167207E-3,-5.2997494E1,-7.1632065E-2,-4.1056618E-2,4.9287495E-3,-3.7910633E-2,7.366924E-3,1.7663715E-2,2.2422944E-3,-3.1756453E-2,4.273674E-2],"split_indices":[1,8,8,5,7,6,7,0,6,9,8,6,0,8,5,0,0,6,6,0,7,0,0,0,0,4,0,0,0,0,0,0,0,0,0],"split_type":[0,0,0,0,0,0,0,0,0,0,0,0,0,0,0,0,0,0,0,0,0,0,0,0,0,0,0,0,0,0,0,0,0,0,0],"sum_hessian":[6.7679803E2,6.573296E2,1.9468443E1,6.223845E0,6.511058E2,9.734975E0,9.733467E0,1.4971435E0,4.7267017E0,1.0151939E2,5.4958636E2,8.487994E0,1.2469815E0,3.2453954E0,6.4880714E0,1.7449076E0,2.9817939E0,3.7902573E1,6.3616814E1,2.2473576E0,5.47339E2,1.2491478E0,7.238846E0,1.9969943E0,1.2484013E0,4.2414994E0,2.246572E0,2.67126E1,1.1189974E1,8.240488E0,5.5376324E1,5.4592556E1,4.9274646E2,2.4949408E0,1.7465588E0],"tree_param":{"num_deleted":"0","num_feature":"11","num_nodes":"35","size_leaf_vector":"1"}},{"base_weights":[-3.8624157E-3,7.4875187E-3,-9.207454E-1,2.4879579E-1,-2.194382E-2,-3.2498494E-2,-1.3013307E0,4.9636406E-1,-6.887256E-2,-3.4719694E-1,3.975241E-3,1.0395768E-2,-1.2928697E-2,-7.549801E-2,-2.1291401E-2,1.4477584E-1,1.081924E0,-2.8930512E-1,1.140165E0,-8.362823E-1,-1.2655993E-1,2.113845E-1,-5.1733073E-2,-1.4791769E-2,2.1848721E-2,8.512056E-3,6.815031E-2,1.9277215E-2,-5.4577958E-2,1.6484754E-2,6.880098E-2,-1.1186191E-2,-6.481146E-2,-2.0814372E-2,1.6622888E-2,-2.5851228E-3,1.9785868E-2,-7.600804E-3,3.1263449E-3],"categories":[],"categories_nodes":[],"categories_segments":[],"categories_sizes":[],"default_left":[0,0,0,0,0,0,0,0,0,0,0,0,0,0,0,0,0,0,0,0,0,0,0,0,0,0,0,0,0,0,0,0,0,0,0,0,0,0,0],"id":5,"left_children":[1,3,5,7,9,11,13,15,17,19,21,-1,-1,-1,-1,23,25,27,29,31,33,35,37,-1,-1,-1,-1,-1,-1,-1,-1,-1,-1,-1,-1,-1,-1,-1,-1],"loss_changes":[7.009578E0,4.733097E0,2.741939E0,5.731566E0,5.0108895E0,2.4377559E-1,4.0546703E-1,8.250602E0,9.020312E0,4.6281657E0,6.3815813E0,0E0,0E0,0E0,0E0,3.5629764E0,3.6543808E0,1.5784419E1,5.4620934E-1,3.5022326E0,4.3156123E0,5.6911817E0,4.9987755E0,0E0,0E0,0E0,0E0,0E0,0E0,0E0,0E0,0E0,0E0,0E0,0E0,0E0,0E0,0E0,0E0],"parents":[2147483647,0,0,1,1,2,2,3,3,4,4,5,5,6,6,7,7,8,8,9,9,10,10,15,15,16,16,17,17,18,18,19,19,20,20,21,21,22,22],"right_children":[2,4,6,8,10,12,14,16,18,20,22,-1,-1,-1,-1,24,26,28,30,32,34,36,38,-1,-1,-1,-1,-1,-1,-1,-1,-1,-1,-1,-1,-1,-1,-1,-1],"split_conditions":[2.5832664E4,2.1810166E4,1.8331213E1,2.9313103E-3,2.2238385E4,7.138325E-4,2.89154E-3,3.191771E-3,1.5621058E1,2.0779718E-3,2.3163045E4,1.0395768E-2,-1.2928697E-2,-7.549801E-2,-2.1291401E-2,6.2547436E1,-7.4847436E0,2.015844E0,3.6428715E-3,3.5935178E-4,6.0522152E1,4.7728844E1,2.467281E4,-1.4791769E-2,2.1848721E-2,8.512056E-3,6.815031E-2,1.9277215E-2,-5.4577958E-2,1.6484754E-2,6.880098E-2,-1.1186191E-2,-6.481146E-2,-2.0814372E-2,1.6622888E-2,-2.5851228E-3,1.9785868E-2,-7.600804E-3,3.1263449E-3],"split_indices":[1,1,3,8,1,7,10,10,9,8,1,0,0,0,0,4,9,9,8,7,3,3,2,0,0,0,0,0,0,0,0,0,0,0,0,0,0,0,0],"split_type":[0,0,0,0,0,0,0,0,0,0,0,0,0,0,0,0,0,0,0,0,0,0,0,0,0,0,0,0,0,0,0,0,0,0,0,0,0,0,0],"sum_hessian":[6.719105E2,6.646745E2,7.2360563E0,7.144465E1,5.9322986E2,2.496012E0,4.740044E0,3.983643E1,3.160822E1,4.286981E1,5.5036005E2,1.2485756E0,1.2474364E0,3.2426524E0,1.4973917E0,2.5670382E1,1.4166046E1,2.7377457E1,4.2307625E0,1.245983E1,3.0409979E1,1.15932785E2,4.3442725E2,1.0230775E1,1.5439608E1,3.7166982E0,1.04493475E1,1.5151536E1,1.2225922E1,1.4941776E0,2.736585E0,5.980883E0,6.4789467E0,1.8699884E1,1.1710094E1,4.8059677E1,6.787311E1,2.311886E2,2.0323866E2],"tree_param":{"num_deleted":"0","num_feature":"11","num_nodes":"39","size_leaf_vector":"1"}},{"base_weights":[4.9370003E-4,1.2265913E-1,-1.0814672E-1,6.834273E-1,7.1485676E-2,-3.7056756E-1,-3.7633613E-2,1.0117626E0,3.8373776E-2,-6.350668E-1,1.1888312E-1,6.595489E-1,-4.454E-1,-6.582208E-2,5.886844E-1,1.2753463E-1,1.2652153E0,5.1944334E-2,-2.2491498E-1,-1.4124216E-1,-1.3006412E0,2.3745227E-1,-4.1858282E-2,6.3937776E-2,-5.9895087E-2,-1.1639383E0,-2.8992218E-1,-2.3456843E-1,3.0639963E-2,-2.4407004E-1,8.5469335E-1,-2.8703198E-2,3.417644E-2,1.7604215E-2,7.080382E-2,-3.0992774E-2,3.1687003E-2,1.2101894E-2,-4.3581735E-2,-7.956841E-2,-2.6378434E-3,-4.0862106E-2,1.4046631E-2,-7.5221616E-3,3.5587903E-2,3.109704E-2,-3.575989E-2,-7.834711E-2,-4.2195298E-2,1.7557675E-2,-1.9278957E-2,-7.979221E-3,-5.614671E-2,5.3026113E-3,-1.6796311E-2,1.5601522E-2,-3.765495E-2,5.690312E-2,-1.2794553E-2],"categories":[],"categories_nodes":[],"categories_segments":[],"categories_sizes":[],"default_left":[0,0,0,0,0,0,0,0,0,0,0,0,0,0,0,0,0,0,0,0,0,0,0,0,0,0,0,0,0,0,0,0,0,0,0,0,0,0,0,0,0,0,0,0,0,0,0,0,0,0,0,0,0,0,0,0,0,0,0],"id":6,"left_children":[1,3,5,7,9,11,13,15,17,19,21,23,25,27,29,31,33,-1,35,37,39,41,43,-1,45,47,49,51,53,55,57,-1,-1,-1,-1,-1,-1,-1,-1,-1,-1,-1,-1,-1,-1,-1,-1,-1,-1,-1,-1,-1,-1,-1,-1,-1,-1,-1,-1],"loss_changes":[8.905873E0,9.0148735E0,6.558234E0,5.530491E0,9.805749E0,6.0837307E0,5.000912E0,3.7351456E0,2.8440185E0,5.871646E0,5.215499E0,2.5222707E0,7.5520353E0,4.3998356E0,2.9123683E0,2.3371508E0,1.3475056E0,0E0,3.3319452E0,3.4857976E0,2.7187319E0,7.444683E0,9.664595E0,0E0,2.006265E0,2.5511932E-1,3.7773628E0,6.3668013E0,4.806615E0,1.2916386E0,3.2723265E0,0E0,0E0,0E0,0E0,0E0,0E0,0E0,0E0,0E0,0E0,0E0,0E0,0E0,0E0,0E0,0E0,0E0,0E0,0E0,0E0,0E0,0E0,0E0,0E0,0E0,0E0,0E0,0E0],"parents":[2147483647,0,0,1,1,2,2,3,3,4,4,5,5,6,6,7,7,8,8,9,9,10,10,11,11,12,12,13,13,14,14,15,15,16,16,18,18,19,19,20,20,21,21,22,22,24,24,25,25,26,26,27,27,28,28,29,29,30,30],"right_children":[2,4,6,8,10,12,14,16,18,20,22,24,26,28,30,32,34,-1,36,38,40,42,44,-1,46,48,50,52,54,56,58,-1,-1,-1,-1,-1,-1,-1,-1,-1,-1,-1,-1,-1,-1,-1,-1,-1,-1,-1,-1,-1,-1,-1,-1,-1,-1,-1,-1],"split_conditions":[2.3847203E4,-9.512672E1,2.4450771E4,3.5243E1,-1.4685048E1,1.1917192E-3,6.963421E-3,1.4720065E1,2.2154797E4,-7.09494E1,5.1446438E1,5.3993973E1,1.8762362E-3,4.3484303E1,-6.904275E1,2.8028975E-3,-1.3484947E2,5.1944334E-2,7.587591E-3,2.2645207E4,2.3341047E4,1.0540475E-3,8.981002E1,6.3937776E-2,9.1162836E-4,2.4212873E4,2.352319E1,4.1748283E1,3.7170625E-3,2.696107E1,2.5040117E4,-2.8703198E-2,3.417644E-2,1.7604215E-2,7.080382E-2,-3.0992774E-2,3.1687003E-2,1.2101894E-2,-4.3581735E-2,-7.956841E-2,-2.6378434E-3,-4.0862106E-2,1.4046631E-2,-7.5221616E-3,3.5587903E-2,3.109704E-2,-3.575989E-2,-7.834711E-2,-4.2195298E-2,1.7557675E-2,-1.9278957E-2,-7.979221E-3,-5.614671E-2,5.3026113E-3,-1.6796311E-2,1.5601522E-2,-3.765495E-2,5.690312E-2,-1.2794553E-2],"split_indices":[2,4,1,3,9,8,8,3,0,5,5,3,8,3,5,8,5,0,8,0,0,8,3,0,8,2,3,3,8,3,1,0,0,0,0,0,0,0,0,0,0,0,0,0,0,0,0,0,0,0,0,0,0,0,0,0,0,0,0],"split_type":[0,0,0,0,0,0,0,0,0,0,0,0,0,0,0,0,0,0,0,0,0,0,0,0,0,0,0,0,0,0,0,0,0,0,0,0,0,0,0,0,0,0,0,0,0,0,0,0,0,0,0,0,0,0,0,0,0,0,0],"sum_hessian":[6.690225E2,3.1484848E2,3.5417407E2,2.5295929E1,2.8955255E2,7.411037E1,2.800637E2,1.6386583E1,8.909345E0,1.742341E1,2.7212912E2,4.48993E0,6.962044E1,2.688582E2,1.1205496E1,3.9854856E0,1.2401097E1,1.2423884E0,7.666957E0,1.0698122E1,6.72529E0,1.563339E2,1.1579523E2,1.995249E0,2.4946811E0,1.1230885E1,5.8389553E1,9.726881E1,1.7158939E2,2.7328007E0,8.472695E0,1.7476538E0,2.2378316E0,2.2310212E0,1.0170076E1,5.4420033E0,2.2249537E0,7.4547787E0,3.2433426E0,5.231275E0,1.4940145E0,5.4851837E0,1.5084871E2,1.01911644E2,1.3883586E1,1.2475394E0,1.2471416E0,3.2464988E0,7.984386E0,7.2344694E0,5.1155083E1,9.078554E1,6.48327E0,1.4290149E2,2.8687893E1,1.4909675E0,1.2418333E0,6.730616E0,1.7420791E0],"tree_param":{"num_deleted":"0","num_feature":"11","num_nodes":"59","size_leaf_vector":"1"}},{"base_weights":[-2.5054514E-2,-9.981235E-2,1.8645394E-1,-1.1584086E-1,5.529543E-1,4.5304534E-1,-3.677609E-2,7.3390186E-1,-1.260781E-1,8.669866E-1,-3.063171E-1,1.20138064E-1,6.022151E-1,-1.712783E-1,7.315489E-1,-9.89872E-3,5.8324903E-2,-7.8007925E-1,-1.0712861E-1,1.1815189E0,2.6820207E-1,3.8271986E-2,-6.2815964E-2,5.846399E-1,-2.5946507E-1,6.487814E-1,-3.9950818E-2,-4.597245E-1,6.432719E-2,1.3190769E0,1.7783062E-1,8.910297E-3,-6.014603E-2,-2.2071054E-2,-3.8341489E-3,6.374858E-3,7.2243154E-2,4.8785355E-2,-1.5190631E-2,9.876977E-3,5.311634E-2,3.994593E-2,-2.2804609E-2,3.8340535E-2,6.977831E-3,-1.5233697E-2,-5.3468615E-2,-3.9324846E-2,9.513606E-3,1.6934128E-2,7.624229E-2,2.580372E-2,-4.3628044E-2],"categories":[],"categories_nodes":[],"categories_segments":[],"categories_sizes":[],"default_left":[0,0,0,0,0,0,0,0,0,0,0,0,0,0,0,0,0,0,0,0,0,0,0,0,0,0,0,0,0,0,0,0,0,0,0,0,0,0,0,0,0,0,0,0,0,0,0,0,0,0,0,0,0],"id":7,"left_children":[1,3,5,7,9,11,13,15,17,19,21,23,25,27,29,-1,-1,31,33,35,37,-1,-1,39,41,43,-1,45,47,49,51,-1,-1,-1,-1,-1,-1,-1,-1,-1,-1,-1,-1,-1,-1,-1,-1,-1,-1,-1,-1,-1,-1],"loss_changes":[1.0713325E1,5.2995644E0,1.0549039E1,4.3482947E0,3.54834E0,3.9367867E0,1.0175174E1,2.6377397E0,5.9177732E0,1.4102817E0,5.029272E0,4.776783E0,4.1398964E0,5.7090473E0,4.540483E0,0E0,0E0,5.6752005E0,4.7677717E0,1.4031391E0,2.0981214E0,0E0,0E0,2.028226E0,3.5123832E0,3.1547184E0,0E0,3.2373729E0,5.172769E0,8.887787E-1,3.545628E0,0E0,0E0,0E0,0E0,0E0,0E0,0E0,0E0,0E0,0E0,0E0,0E0,0E0,0E0,0E0,0E0,0E0,0E0,0E0,0E0,0E0,0E0],"parents":[2147483647,0,0,1,1,2,2,3,3,4,4,5,5,6,6,7,7,8,8,9,9,10,10,11,11,12,12,13,13,14,14,17,17,18,18,19,19,20,20,23,23,24,24,25,25,27,27,28,28,29,29,30,30],"right_children":[2,4,6,8,10,12,14,16,18,20,22,24,26,28,30,-1,-1,32,34,36,38,-1,-1,40,42,44,-1,46,48,50,52,-1,-1,-1,-1,-1,-1,-1,-1,-1,-1,-1,-1,-1,-1,-1,-1,-1,-1,-1,-1,-1,-1],"split_conditions":[3.914095E-3,1.6463412E2,2.3263361E4,6.5914646E-4,2.3413533E4,-1.2118525E1,2.4846875E4,-1.8253931E1,5.3393655E-5,9.054339E1,3.0173191E-3,-1.05288864E2,8.746903E1,1.1889018E-3,1.2160639E-3,-9.89872E-3,5.8324903E-2,2.3761683E-3,1.1034827E-3,6.598562E-4,5.8801484E-4,3.8271986E-2,-6.2815964E-2,-1.1862748E2,5.1324524E-4,5.7661777E1,-3.9950818E-2,8.802192E-4,4.032404E-3,2.6363088E-4,6.5023674E1,8.910297E-3,-6.014603E-2,-2.2071054E-2,-3.8341489E-3,6.374858E-3,7.2243154E-2,4.8785355E-2,-1.5190631E-2,9.876977E-3,5.311634E-2,3.994593E-2,-2.2804609E-2,3.8340535E-2,6.977831E-3,-1.5233697E-2,-5.3468615E-2,-3.9324846E-2,9.513606E-3,1.6934128E-2,7.624229E-2,2.580372E-2,-4.3628044E-2],"split_indices":[6,4,0,8,0,9,0,5,7,3,6,4,3,7,7,0,0,6,8,7,7,0,0,5,7,5,0,7,6,7,3,0,0,0,0,0,0,0,0,0,0,0,0,0,0,0,0,0,0,0,0,0,0],"split_type":[0,0,0,0,0,0,0,0,0,0,0,0,0,0,0,0,0,0,0,0,0,0,0,0,0,0,0,0,0,0,0,0,0,0,0,0,0,0,0,0,0,0,0,0,0,0,0,0,0,0,0,0,0],"sum_hessian":[6.753706E2,4.993892E2,1.7598143E2,4.8822354E2,1.1165656E1,7.973217E1,9.624926E1,4.9703455E0,4.832532E2,8.170617E0,2.99504E0,2.5230276E1,5.4501892E1,8.2571465E1,1.3677802E1,1.747763E0,3.2225823E0,1.2476798E1,4.707764E2,4.7187395E0,3.451877E0,1.4986242E0,1.4964156E0,1.1103423E1,1.4126853E1,5.326864E1,1.2332549E0,3.669518E1,4.587628E1,5.965663E0,7.712139E0,3.9969845E0,8.479814E0,3.8170162E1,4.3260623E2,1.23997E0,3.4787695E0,1.2276732E0,2.224204E0,6.914054E0,4.189369E0,1.7333958E0,1.2393456E1,4.2834522E1,1.0434114E1,3.0450514E1,6.244665E0,5.2390413E0,4.063724E1,1.4938922E0,4.471771E0,6.2183948E0,1.4937445E0],"tree_param":{"num_deleted":"0","num_feature":"11","num_nodes":"53","size_leaf_vector":"1"}},{"base_weights":[1.0171693E-2,9.534697E-1,8.0193236E-4,1.1219834E0,5.8614085E-3,2.323287E-1,-2.5451774E-2,6.659763E-2,1.6976116E-2,7.5027657E-1,1.02780394E-1,-4.9915612E-1,-7.6614553E-3,-2.8483784E-2,9.930758E-1,-6.279359E-1,1.6667509E-1,2.4822426E-1,-8.461173E-1,-1.4318338E-1,6.693136E-2,-4.4445447E-3,5.7832547E-2,1.4138914E-2,-5.65736E-2,-3.0571471E-3,2.0925062E-2,4.6096083E-2,-1.8558659E-2,-5.9501138E-2,-1.5085587E-2,-1.4072294E-2,4.2787488E-3,2.2886869E-2,1.6170342E-3],"categories":[],"categories_nodes":[],"categories_segments":[],"categories_sizes":[],"default_left":[0,0,0,0,0,0,0,0,0,0,0,0,0,0,0,0,0,0,0,0,0,0,0,0,0,0,0,0,0,0,0,0,0,0,0],"id":8,"left_children":[1,3,5,7,-1,9,11,-1,-1,13,15,17,19,-1,21,23,25,27,29,31,33,-1,-1,-1,-1,-1,-1,-1,-1,-1,-1,-1,-1,-1,-1],"loss_changes":[6.0063877E0,8.103409E-1,4.10263E0,4.4253492E-1,0E0,4.535284E0,5.1051354E0,0E0,0E0,4.9225283E0,2.7260306E0,5.896203E0,5.926436E0,0E0,2.1995077E0,2.486466E0,3.0330117E0,3.5659094E0,2.4872303E0,6.6062894E0,5.0977836E0,0E0,0E0,0E0,0E0,0E0,0E0,0E0,0E0,0E0,0E0,0E0,0E0,0E0,0E0],"parents":[2147483647,0,0,1,1,2,2,3,3,5,5,6,6,9,9,10,10,11,11,12,12,14,14,15,15,16,16,17,17,18,18,19,19,20,20],"right_children":[2,4,6,8,-1,10,12,-1,-1,14,16,18,20,-1,22,24,26,28,30,32,34,-1,-1,-1,-1,-1,-1,-1,-1,-1,-1,-1,-1,-1,-1],"split_conditions":[-3.7261974E1,4.0437616E-3,2.1831438E4,-1.8194022E2,5.8614085E-3,3.8733246E1,2.1885023E4,6.659763E-2,1.6976116E-2,2.088551E4,4.3024345E1,5.1324524E-4,4.3024345E1,-2.8483784E-2,1.8606054E-3,2.1448201E4,3.052845E-3,3.0401866E-3,3.4242906E-3,1.6509014E-3,4.6563725E1,-4.4445447E-3,5.7832547E-2,1.4138914E-2,-5.65736E-2,-3.0571471E-3,2.0925062E-2,4.6096083E-2,-1.8558659E-2,-5.9501138E-2,-1.5085587E-2,-1.4072294E-2,4.2787488E-3,2.2886869E-2,1.6170342E-3],"split_indices":[9,7,0,5,0,3,2,0,0,2,3,7,3,0,8,0,10,10,10,7,3,0,0,0,0,0,0,0,0,0,0,0,0,0,0],"split_type":[0,0,0,0,0,0,0,0,0,0,0,0,0,0,0,0,0,0,0,0,0,0,0,0,0,0,0,0,0,0,0,0,0,0,0],"sum_hessian":[6.786593E2,5.683802E0,6.7297546E2,4.446147E0,1.2376553E0,6.773991E1,6.0523553E2,2.9517896E0,1.4943572E0,1.2594456E1,5.5145454E1,2.0927935E1,5.843076E2,1.7475893E0,1.0846867E1,3.7244148E0,5.142104E1,6.7254305E0,1.4202504E1,2.0710855E2,3.7719907E2,1.4844639E0,9.362403E0,1.4821529E0,2.242262E0,2.7394985E1,2.4026052E1,2.9875536E0,3.7378767E0,7.9772797E0,6.2252245E0,1.2894395E2,7.81646E1,2.9676828E1,3.4752225E2],"tree_param":{"num_deleted":"0","num_feature":"11","num_nodes":"35","size_leaf_vector":"1"}},{"base_weights":[5.2253115E-3,-1.8298453E-2,4.012923E-1,-1.4632478E-1,4.7251333E-2,6.4816815E-1,-4.1943297E-1,-7.813101E-2,-6.141628E-1,1.06109776E-1,-1.1534984E-1,9.6661556E-1,1.5332642E-1,-1.0043772E0,4.2088258E-1,-2.4478815E-1,2.3003428E-1,4.010191E-1,-8.490745E-1,5.567663E-1,6.852393E-2,-3.105023E-1,1.11714914E-1,-2.562142E-3,1.1159335E0,-5.131622E-1,6.5069914E-1,9.632173E-3,-6.897087E-2,4.8417054E-2,-2.0238658E-2,-1.5075922E-2,3.8454037E-2,2.9666616E-2,4.4030435E-3,4.284507E-2,-3.4438215E-2,3.180125E-2,-4.839032E-2,-2.3882505E-2,3.4449827E-2,-2.0166224E-2,5.850802E-3,-1.9870652E-2,3.1419747E-2,-4.177791E-2,1.4751248E-2,1.1962699E-2,5.9583616E-2,2.6384924E-2,-4.4836383E-2,5.9357762E-2,-3.6926914E-3],"categories":[],"categories_nodes":[],"categories_segments":[],"categories_sizes":[],"default_left":[0,0,0,0,0,0,0,0,0,0,0,0,0,0,0,0,0,0,0,0,0,0,0,0,0,0,0,0,0,0,0,0,0,0,0,0,0,0,0,0,0,0,0,0,0,0,0,0,0,0,0,0,0],"id":9,"left_children":[1,3,5,7,9,11,13,15,17,19,21,23,25,27,29,31,33,35,37,39,41,43,45,-1,47,49,51,-1,-1,-1,-1,-1,-1,-1,-1,-1,-1,-1,-1,-1,-1,-1,-1,-1,-1,-1,-1,-1,-1,-1,-1,-1,-1],"loss_changes":[6.201481E0,5.2813997E0,7.8327117E0,6.749795E0,3.9977007E0,4.434209E0,4.962661E0,9.665947E0,6.770154E0,5.149663E0,4.9602995E0,2.7176552E0,4.5023885E0,2.8429775E0,2.4239092E0,7.244469E0,3.3617067E0,3.444708E0,4.532795E0,3.5349011E0,6.541707E0,5.1493196E0,9.29567E0,0E0,7.314091E-1,2.841845E0,3.0580254E0,0E0,0E0,0E0,0E0,0E0,0E0,0E0,0E0,0E0,0E0,0E0,0E0,0E0,0E0,0E0,0E0,0E0,0E0,0E0,0E0,0E0,0E0,0E0,0E0,0E0,0E0],"parents":[2147483647,0,0,1,1,2,2,3,3,4,4,5,5,6,6,7,7,8,8,9,9,10,10,11,11,12,12,13,13,14,14,15,15,16,16,17,17,18,18,19,19,20,20,21,21,22,22,24,24,25,25,26,26],"right_children":[2,4,6,8,10,12,14,16,18,20,22,24,26,28,30,32,34,36,38,40,42,44,46,-1,48,50,52,-1,-1,-1,-1,-1,-1,-1,-1,-1,-1,-1,-1,-1,-1,-1,-1,-1,-1,-1,-1,-1,-1,-1,-1,-1,-1],"split_conditions":[5.155244E-3,4.3240032E1,9.083988E0,6.1129875E0,3.803984E-3,2.4385948E-3,1.8251072E1,1.6713456E-3,5.806027E-4,-2.4468714E1,3.914095E-3,2.2181252E4,-1.3858463E2,4.478222E1,2.3081205E1,3.5949926E0,2.5377588E1,3.7090073E-3,1.591192E1,2.3415228E-3,-2.3961833E0,2.370018E1,-6.5055725E1,-2.562142E-3,-4.0869587E1,2.2544703E4,4.475844E-3,9.632173E-3,-6.897087E-2,4.8417054E-2,-2.0238658E-2,-1.5075922E-2,3.8454037E-2,2.9666616E-2,4.4030435E-3,4.284507E-2,-3.4438215E-2,3.180125E-2,-4.839032E-2,-2.3882505E-2,3.4449827E-2,-2.0166224E-2,5.850802E-3,-1.9870652E-2,3.1419747E-2,-4.177791E-2,1.4751248E-2,1.1962699E-2,5.9583616E-2,2.6384924E-2,-4.4836383E-2,5.9357762E-2,-3.6926914E-3],"split_indices":[6,3,9,9,10,7,9,7,7,4,6,0,4,3,9,9,3,6,3,6,9,9,4,0,9,0,10,0,0,0,0,0,0,0,0,0,0,0,0,0,0,0,0,0,0,0,0,0,0,0,0,0,0],"split_type":[0,0,0,0,0,0,0,0,0,0,0,0,0,0,0,0,0,0,0,0,0,0,0,0,0,0,0,0,0,0,0,0,0,0,0,0,0,0,0,0,0,0,0,0,0,0,0,0,0,0,0,0,0],"sum_hessian":[6.638221E2,6.2750616E2,3.631592E1,2.1207222E2,4.1543393E2,2.807973E1,8.236191E0,1.8611101E2,2.5961216E1,3.0527704E2,1.1015689E2,1.650489E1,1.157484E1,4.740846E0,3.4953446E0,1.20921684E2,6.5189316E1,4.7456326E0,2.1215582E1,2.2437454E1,2.8283957E2,5.9043804E1,5.111309E1,2.1955137E0,1.4309377E1,4.932907E0,6.6419325E0,1.2470282E0,3.493818E0,1.9978426E0,1.4975021E0,1.1517951E2,5.742178E0,1.7423883E1,4.7765434E1,3.4966123E0,1.2490206E0,1.2480581E0,1.9967525E1,2.247031E0,2.0190424E1,2.5676752E1,2.571628E2,5.456923E1,4.4745755E0,7.7104406E0,4.340265E1,1.4686491E0,1.2840728E1,1.2271327E0,3.7057743E0,3.4494832E0,3.1924493E0],"tree_param":{"num_deleted":"0","num_feature":"11","num_nodes":"53","size_leaf_vector":"1"}},{"base_weights":[-2.1240924E-2,-8.581095E-3,-7.212872E-1,-2.6086325E-2,3.6615047E-1,-1.3563659E-3,-1.1532941E0,-1.5365453E-1,3.9431654E-2,1.1549554E0,9.973336E-2,-3.8418245E-2,4.771661E-1,-1.0634101E-2,-6.5359645E-2,-5.467162E-2,-5.843769E-1,-1.3717756E-2,2.4151583E-1,6.681319E-2,6.981039E-3,3.899986E-1,-4.334657E-1,-1.0441748E-2,4.3245304E-2,3.102932E-2,-5.618913E-3,-1.2671393E-2,-4.2331703E-2,9.927291E-5,-5.2310295E-2,1.903533E-2,-6.668187E-3,-3.5782687E-2,2.6779456E-2,-6.1850276E-2,-6.6868155E-3],"categories":[],"categories_nodes":[],"categories_segments":[],"categories_sizes":[],"default_left":[0,0,0,0,0,0,0,0,0,0,0,0,0,0,0,0,0,0,0,0,0,0,0,0,0,0,0,0,0,0,0,0,0,0,0,0,0],"id":10,"left_children":[1,3,5,7,9,11,13,15,17,19,21,-1,23,-1,-1,25,27,29,31,-1,-1,33,35,-1,-1,-1,-1,-1,-1,-1,-1,-1,-1,-1,-1,-1,-1],"loss_changes":[5.96501E0,4.357406E0,3.7169442E0,5.3063726E0,6.115177E0,2.3798034E0,8.03483E-1,9.150902E0,4.5119443E0,1.1739616E0,3.7684305E0,0E0,1.2431493E0,0E0,0E0,6.9373503E0,3.2697678E0,5.4060955E0,4.614753E0,0E0,0E0,2.892069E0,1.9230105E0,0E0,0E0,0E0,0E0,0E0,0E0,0E0,0E0,0E0,0E0,0E0,0E0,0E0,0E0],"parents":[2147483647,0,0,1,1,2,2,3,3,4,4,5,5,6,6,7,7,8,8,9,9,10,10,12,12,15,15,16,16,17,17,18,18,21,21,22,22],"right_children":[2,4,6,8,10,12,14,16,18,20,22,-1,24,-1,-1,26,28,30,32,-1,-1,34,36,-1,-1,-1,-1,-1,-1,-1,-1,-1,-1,-1,-1,-1,-1],"split_conditions":[2.5810717E4,4.969342E-3,2.5874302E1,4.3024345E1,4.1512276E1,-5.9399036E1,3.706757E-4,3.8733246E1,2.4914078E4,2.4619031E4,1.5719135E-3,-3.8418245E-2,6.3599815E-4,-1.0634101E-2,-6.5359645E-2,2.1848656E4,-2.3646608E1,2.4904105E4,7.179411E1,6.681319E-2,6.981039E-3,4.9043148E1,2.255911E4,-1.0441748E-2,4.3245304E-2,3.102932E-2,-5.618913E-3,-1.2671393E-2,-4.2331703E-2,9.927291E-5,-5.2310295E-2,1.903533E-2,-6.668187E-3,-3.5782687E-2,2.6779456E-2,-6.1850276E-2,-6.6868155E-3],"split_indices":[1,10,3,3,3,4,7,3,1,0,7,0,7,0,0,0,4,1,3,0,0,3,0,0,0,0,0,0,0,0,0,0,0,0,0,0,0],"split_type":[0,0,0,0,0,0,0,0,0,0,0,0,0,0,0,0,0,0,0,0,0,0,0,0,0,0,0,0,0,0,0,0,0,0,0,0,0],"sum_hessian":[6.727628E2,6.6180676E2,1.0956037E1,6.331597E2,2.8647066E1,4.4850044E0,6.4710317E0,2.143872E2,4.187725E2,6.390627E0,2.225644E1,1.4903948E0,2.9946098E0,1.2448167E0,5.2262154E0,1.7524226E2,3.914493E1,3.3230606E2,8.646645E1,5.1541643E0,1.2364621E0,1.4585104E1,7.671335E0,1.2480059E0,1.7466041E0,1.3028956E1,1.6221332E2,1.817534E1,2.0969591E1,3.2831082E2,3.9952345E0,6.3043285E1,2.3423172E1,1.2414769E0,1.3343627E1,1.2345567E0,6.4367785E0],"tree_param":{"num_deleted":"0","num_feature":"11","num_nodes":"37","size_leaf_vector":"1"}},{"base_weights":[6.096398E-3,-6.534296E-2,1.3712887E-1,-1.4161907E-1,1.5275408E-1,2.4111076E-1,-1.09423185E-2,-4.764989E-2,-4.117448E-1,3.2552898E-1,-8.265391E-2,3.3696315E-1,-1.5929773E-1,2.5349244E-1,-2.4311091E-1,3.583105E-1,-1.2464398E-1,-5.665224E-1,8.708368E-2,5.7375735E-1,1.4538896E-1,-1.0652589E0,2.634028E-2,-3.7427282E-1,4.2706195E-1,-6.185758E-1,3.910602E-1,-1.2544301E-1,6.3966405E-1,-1.0897263E-1,-9.7789675E-1,7.7032237E-3,5.0564766E-2,-4.5404553E-2,-4.988936E-3,-1.1069349E-2,-4.9323592E-2,2.2683932E-2,-2.8313179E-2,1.7723449E-2,6.216023E-2,-4.495281E-2,1.4270558E-2,-7.501467E-2,6.8939882E-3,2.2325419E-2,-8.818357E-3,1.3471164E-3,-5.9059083E-2,4.539376E-2,1.6657865E-2,-4.4742692E-2,2.0896025E-2,3.3711344E-2,-1.6192365E-2,1.5866978E-2,-2.7813423E-2,-3.8997624E-2,3.7617374E-2,-1.565281E-2,4.2700447E-2,-3.4677268E-3,-6.800275E-2],"categories":[],"categories_nodes":[],"categories_segments":[],"categories_sizes":[],"default_left":[0,0,0,0,0,0,0,0,0,0,0,0,0,0,0,0,0,0,0,0,0,0,0,0,0,0,0,0,0,0,0,0,0,0,0,0,0,0,0,0,0,0,0,0,0,0,0,0,0,0,0,0,0,0,0,0,0,0,0,0,0,0,0],"id":11,"left_children":[1,3,5,7,9,11,13,15,17,19,21,23,25,27,29,31,33,35,37,39,41,43,45,47,49,51,53,55,57,59,61,-1,-1,-1,-1,-1,-1,-1,-1,-1,-1,-1,-1,-1,-1,-1,-1,-1,-1,-1,-1,-1,-1,-1,-1,-1,-1,-1,-1,-1,-1,-1,-1],"loss_changes":[6.4145994E0,7.400034E0,3.7250738E0,8.334721E0,4.7207685E0,5.506441E0,6.243671E0,7.712269E0,6.5975275E0,2.9017992E0,5.3450966E0,7.5261583E0,7.349772E0,7.040774E0,5.2285957E0,5.094487E0,3.9408197E0,9.182667E0,5.274942E0,3.6308413E0,6.110061E0,2.8140688E0,3.968103E0,4.388678E0,4.3252296E0,4.8743744E0,2.931908E0,4.915815E0,4.3815413E0,9.484307E0,2.763435E0,0E0,0E0,0E0,0E0,0E0,0E0,0E0,0E0,0E0,0E0,0E0,0E0,0E0,0E0,0E0,0E0,0E0,0E0,0E0,0E0,0E0,0E0,0E0,0E0,0E0,0E0,0E0,0E0,0E0,0E0,0E0,0E0],"parents":[2147483647,0,0,1,1,2,2,3,3,4,4,5,5,6,6,7,7,8,8,9,9,10,10,11,11,12,12,13,13,14,14,15,15,16,16,17,17,18,18,19,19,20,20,21,21,22,22,23,23,24,24,25,25,26,26,27,27,28,28,29,29,30,30],"right_children":[2,4,6,8,10,12,14,16,18,20,22,24,26,28,30,32,34,36,38,40,42,44,46,48,50,52,54,56,58,60,62,-1,-1,-1,-1,-1,-1,-1,-1,-1,-1,-1,-1,-1,-1,-1,-1,-1,-1,-1,-1,-1,-1,-1,-1,-1,-1,-1,-1,-1,-1,-1,-1],"split_conditions":[6.2349125E1,4.070525E-3,7.580905E1,3.544649E-3,-4.0908062E1,3.7170625E-3,2.3413533E4,-5.9870754E1,4.2709177E-3,1.4253756E-3,1.4699743E-3,1.3064129E-4,3.642992E-3,1.0114127E2,1.2484292E2,4.3024345E1,1.9539944E-3,2.4895836E-3,3.7831662E-3,1.1461766E-3,1.6509014E-3,2.183404E1,2.9313103E-3,7.9259674E1,1.2262048E-3,5.7719545E-3,7.2614406E-3,7.187971E1,1.1034827E-3,2.5276787E4,2.3840371E4,7.7032237E-3,5.0564766E-2,-4.5404553E-2,-4.988936E-3,-1.1069349E-2,-4.9323592E-2,2.2683932E-2,-2.8313179E-2,1.7723449E-2,6.216023E-2,-4.495281E-2,1.4270558E-2,-7.501467E-2,6.8939882E-3,2.2325419E-2,-8.818357E-3,1.3471164E-3,-5.9059083E-2,4.539376E-2,1.6657865E-2,-4.4742692E-2,2.0896025E-2,3.3711344E-2,-1.6192365E-2,1.5866978E-2,-2.7813423E-2,-3.8997624E-2,3.7617374E-2,-1.565281E-2,4.2700447E-2,-3.4677268E-3,-6.800275E-2],"split_indices":[3,6,3,10,5,8,0,5,8,7,8,7,6,4,5,3,10,8,6,7,7,4,8,4,8,8,8,4,8,0,0,0,0,0,0,0,0,0,0,0,0,0,0,0,0,0,0,0,0,0,0,0,0,0,0,0,0,0,0,0,0,0,0],"split_type":[0,0,0,0,0,0,0,0,0,0,0,0,0,0,0,0,0,0,0,0,0,0,0,0,0,0,0,0,0,0,0,0,0,0,0,0,0,0,0,0,0,0,0,0,0,0,0,0,0,0,0,0,0,0,0,0,0,0,0,0,0,0,0],"sum_hessian":[6.832991E2,4.4253098E2,2.4076811E2,3.2812497E2,1.1440602E2,1.410726E2,9.969551E1,2.4431204E2,8.381292E1,6.575967E1,4.864636E1,1.1395238E2,2.7120214E1,4.6566025E1,5.312949E1,3.836649E1,2.0594556E2,6.3861973E1,1.9950945E1,2.673477E1,3.9024895E1,3.9812284E0,4.466513E1,1.2457711E1,1.0149467E2,1.4715806E1,1.2404408E1,2.384399E1,2.2722033E1,4.5898777E1,7.230712E0,3.016665E1,8.199837E0,5.242609E0,2.0070294E2,3.589162E1,2.7970354E1,1.2975798E1,6.9751472E0,2.1290285E1,5.4444857E0,3.9725168E0,3.5052376E1,2.7425764E0,1.2386521E0,1.4144323E1,3.0520807E1,8.966136E0,3.4915755E0,1.5167178E1,8.632749E1,1.1726707E1,2.9890983E0,8.925875E0,3.4785333E0,1.1888723E1,1.1955267E1,1.2354805E0,2.1486553E1,3.842939E1,7.4693856E0,2.4907324E0,4.7399793E0],"tree_param":{"num_deleted":"0","num_feature":"11","num_nodes":"63","size_leaf_vector":"1"}},{"base_weights":[2.0374442E-2,3.9439622E-2,-4.4691902E-1,-3.6125705E-2,1.7357382E-1,-6.9684036E-2,-2.6924548E-1,5.5583086E-2,-2.2190867E-1,4.5149556E-1,8.771896E-2,8.799886E-2,-1.0922624E0,-2.532422E-1,1.5664062E-1,1.9816482E-2,-4.7635913E-1,-2.9658908E-2,4.9671942E-1,-3.0628243E-1,1.6879116E-1,-1.4539431E-1,5.3070456E-2,-1.3822974E0,8.372324E-3,2.8263781E-2,-1.7830918E-2,3.0617348E-3,2.058128E-2,8.208591E-3,-2.9506942E-2,-3.7394665E-2,-1.1250471E-2,7.0189424E-2,2.030062E-2,-6.509931E-2,6.185079E-3,2.5197852E-2,3.971171E-3,1.9337427E-2,-1.870448E-2,-8.036941E-2,-1.4537639E-2],"categories":[],"categories_nodes":[],"categories_segments":[],"categories_sizes":[],"default_left":[0,0,0,0,0,0,0,0,0,0,0,0,0,0,0,0,0,0,0,0,0,0,0,0,0,0,0,0,0,0,0,0,0,0,0,0,0,0,0,0,0,0,0],"id":12,"left_children":[1,3,5,7,9,-1,11,13,15,17,19,21,23,25,27,29,31,-1,33,35,37,39,-1,41,-1,-1,-1,-1,-1,-1,-1,-1,-1,-1,-1,-1,-1,-1,-1,-1,-1,-1,-1],"loss_changes":[6.0476127E0,6.607032E0,4.1014657E0,7.123699E0,5.563945E0,0E0,7.048872E0,8.78577E0,8.50618E0,2.9017591E0,5.8223796E0,4.1108274E0,2.8738165E0,6.080352E0,5.1264286E0,6.419139E0,4.4276524E0,0E0,3.8268251E0,1.3512473E1,4.4670997E0,1.9612283E0,0E0,1.0035706E0,0E0,0E0,0E0,0E0,0E0,0E0,0E0,0E0,0E0,0E0,0E0,0E0,0E0,0E0,0E0,0E0,0E0,0E0,0E0],"parents":[2147483647,0,0,1,1,2,2,3,3,4,4,6,6,7,7,8,8,9,9,10,10,11,11,12,12,13,13,14,14,15,15,16,16,18,18,19,19,20,20,21,21,23,23],"right_children":[2,4,6,8,10,-1,12,14,16,18,20,22,24,26,28,30,32,-1,34,36,38,40,-1,42,-1,-1,-1,-1,-1,-1,-1,-1,-1,-1,-1,-1,-1,-1,-1,-1,-1,-1,-1],"split_conditions":[2.5708412E4,6.2349125E1,-1.15049E1,2.9766202E0,6.692278E1,-6.9684036E-2,6.901572E1,1.89021E-3,2.7082216E-3,2.1094629E4,2.2905383E-3,7.9259674E1,2.6686112E-3,-1.9084658E1,2.4778535E4,5.8349277E1,4.1575236E-3,-2.9658908E-2,2.1796861E4,2.4353104E4,1.6034135E-3,-8.910652E-1,5.3070456E-2,3.2540094E-3,8.372324E-3,2.8263781E-2,-1.7830918E-2,3.0617348E-3,2.058128E-2,8.208591E-3,-2.9506942E-2,-3.7394665E-2,-1.1250471E-2,7.0189424E-2,2.030062E-2,-6.509931E-2,6.185079E-3,2.5197852E-2,3.971171E-3,1.9337427E-2,-1.870448E-2,-8.036941E-2,-1.4537639E-2],"split_indices":[0,3,9,9,3,0,3,8,8,0,6,4,8,9,2,3,8,0,0,2,8,9,0,6,0,0,0,0,0,0,0,0,0,0,0,0,0,0,0,0,0,0,0],"split_type":[0,0,0,0,0,0,0,0,0,0,0,0,0,0,0,0,0,0,0,0,0,0,0,0,0,0,0,0,0,0,0,0,0,0,0,0,0,0,0,0,0,0,0],"sum_hessian":[6.758394E2,6.502263E2,2.561309E1,4.1638434E2,2.33842E2,2.9657211E0,2.264737E1,2.7924188E2,1.3714247E2,5.418389E1,1.7965811E2,1.6415167E1,6.232202E0,6.847643E1,2.1076544E2,7.080275E1,6.6339714E1,1.7455312E0,5.2438362E1,3.0184937E1,1.4947318E2,1.3926632E1,2.4885345E0,4.9867406E0,1.2454613E0,7.1775413E0,6.129889E1,1.542798E2,5.6485634E1,5.7843937E1,1.2958813E1,3.0939806E1,3.5399914E1,3.4511225E0,4.898724E1,8.492069E0,2.169287E1,3.0488726E1,1.1898444E2,3.9783785E0,9.948254E0,3.7424228E0,1.244318E0],"tree_param":{"num_deleted":"0","num_feature":"11","num_nodes":"43","size_leaf_vector":"1"}},{"base_weights":[9.033046E-3,3.3144116E-2,-2.7679962E-1,-2.8772915E-2,1.403802E-1,-6.248535E-2,-1.3047388E-1,2.6055591E-2,-3.550914E-1,5.0967234E-1,3.523531E-2,4.9001396E-2,-7.7589554E-1,1.7776369E-1,-7.3827855E-2,4.5000616E-2,-4.167222E-1,6.7572975E-1,-2.3497969E-1,-1.108197E-1,3.547811E-1,-2.5744134E-1,3.9830935E-1,-1.1300037E0,2.2895144E-1,4.8748557E-3,4.551595E-2,7.527826E-3,-1.18743E-2,-3.1552296E-2,4.4027693E-3,2.2683859E-2,5.9393175E-2,5.0982494E-2,-2.8534776E-2,4.53625E-3,-1.28321E-2,3.787718E-2,3.7913274E-3,1.6549936E-2,-3.3535365E-2,2.6419122E-2,-2.558663E-2,-1.2066256E-2,-6.318461E-2,-1.2304775E-2,3.0139325E-2],"categories":[],"categories_nodes":[],"categories_segments":[],"categories_sizes":[],"default_left":[0,0,0,0,0,0,0,0,0,0,0,0,0,0,0,0,0,0,0,0,0,0,0,0,0,0,0,0,0,0,0,0,0,0,0,0,0,0,0,0,0,0,0,0,0,0,0],"id":13,"left_children":[1,3,5,7,9,-1,11,13,15,17,19,21,23,25,27,-1,29,31,33,35,37,39,41,43,45,-1,-1,-1,-1,-1,-1,-1,-1,-1,-1,-1,-1,-1,-1,-1,-1,-1,-1,-1,-1,-1,-1],"loss_changes":[4.64219E0,4.12635E0,7.297111E0,7.0661426E0,8.812899E0,0E0,5.4439745E0,5.1442575E0,4.769253E0,6.3821507E0,8.351462E0,4.111868E0,3.8928285E0,7.8331685E0,7.5598497E0,0E0,5.9875746E0,4.170227E0,4.759699E0,3.6380265E0,6.2462516E0,5.221651E0,2.3887823E0,6.1226845E-1,7.6863027E-1,0E0,0E0,0E0,0E0,0E0,0E0,0E0,0E0,0E0,0E0,0E0,0E0,0E0,0E0,0E0,0E0,0E0,0E0,0E0,0E0,0E0,0E0],"parents":[2147483647,0,0,1,1,2,2,3,3,4,4,6,6,7,7,8,8,9,9,10,10,11,11,12,12,13,13,14,14,16,16,17,17,18,18,19,19,20,20,21,21,22,22,23,23,24,24],"right_children":[2,4,6,8,10,-1,12,14,16,18,20,22,24,26,28,-1,30,32,34,36,38,40,42,44,46,-1,-1,-1,-1,-1,-1,-1,-1,-1,-1,-1,-1,-1,-1,-1,-1,-1,-1,-1,-1,-1,-1],"split_conditions":[2.5163168E4,6.2349125E1,2.5168223E4,5.708075E1,6.692278E1,-6.248535E-2,6.310399E1,2.4677138E-3,-7.014036E1,2.141037E-3,3.1086688E-3,3.8733246E1,2.5501664E4,1.4720482E-3,-3.75238E1,4.5000616E-2,9.211559E0,2.4708506E4,2.2083525E4,1.6357849E-3,3.9850455E-3,-6.220522E1,2.5950568E4,1.8170527E-4,2.0336884E-3,4.8748557E-3,4.551595E-2,7.527826E-3,-1.18743E-2,-3.1552296E-2,4.4027693E-3,2.2683859E-2,5.9393175E-2,5.0982494E-2,-2.8534776E-2,4.53625E-3,-1.28321E-2,3.787718E-2,3.7913274E-3,1.6549936E-2,-3.3535365E-2,2.6419122E-2,-2.558663E-2,-1.2066256E-2,-6.318461E-2,-1.2304775E-2,3.0139325E-2],"split_indices":[2,3,2,3,3,0,3,8,4,7,8,3,2,7,5,0,9,0,0,8,8,5,0,7,8,0,0,0,0,0,0,0,0,0,0,0,0,0,0,0,0,0,0,0,0,0,0],"split_type":[0,0,0,0,0,0,0,0,0,0,0,0,0,0,0,0,0,0,0,0,0,0,0,0,0,0,0,0,0,0,0,0,0,0,0,0,0,0,0,0,0,0,0,0,0,0,0],"sum_hessian":[6.7125714E2,6.198541E2,5.1403004E1,3.9342578E2,2.2642836E2,5.7344627E0,4.566854E1,3.3761874E2,5.5807037E1,4.9328484E1,1.7709988E2,3.6455326E1,9.213217E0,1.3372725E2,2.038915E2,1.97538E0,5.3831657E1,4.040968E1,8.918803E0,1.2199345E2,5.5106434E1,1.9559265E1,1.689606E1,6.720396E0,2.4928207E0,1.2154281E2,1.2184435E1,8.602564E1,1.1786586E2,3.7611874E1,1.6219786E1,2.950337E1,1.0906309E1,1.4526714E0,7.466131E0,5.1370632E1,7.062281E1,2.1847189E1,3.3259243E1,8.151539E0,1.1407726E1,1.5150039E1,1.7460216E0,1.245593E0,5.474803E0,1.248281E0,1.2445397E0],"tree_param":{"num_deleted":"0","num_feature":"11","num_nodes":"47","size_leaf_vector":"1"}},{"base_weights":[1.4638372E-2,3.3686023E-2,-5.959953E-1,1.136365E-2,4.2149323E-1,-7.103224E-1,-1.23954535E-1,6.3998215E-2,-9.1817185E-2,9.00637E-1,2.4033457E-1,-2.8089225E-2,-8.3104104E-1,1.1419261E-1,-2.1539591E-2,4.2108353E-2,4.5725638E-1,-1.8272145E-1,1.2981631E-1,1.7851655E-1,6.357168E-2,9.633048E-1,4.0449437E-2,-3.4256708E-2,3.205513E-2,-8.558805E-3,-9.117736E-1,-9.1207465E-3,1.6753485E-2,2.8544345E-3,-4.3116834E-2,-3.3215787E-2,2.7900591E-2,-4.6544108E-3,-3.5891473E-2,1.1949939E-2,-2.3248417E-2,3.310912E-2,-1.8243082E-2,5.8752216E-2,4.2530703E-3,-2.808018E-2,1.4500533E-2,-5.828762E-2,-2.1241268E-2],"categories":[],"categories_nodes":[],"categories_segments":[],"categories_sizes":[],"default_left":[0,0,0,0,0,0,0,0,0,0,0,0,0,0,0,0,0,0,0,0,0,0,0,0,0,0,0,0,0,0,0,0,0,0,0,0,0,0,0,0,0,0,0,0,0],"id":14,"left_children":[1,3,5,7,9,11,13,15,17,19,21,23,25,27,-1,29,31,33,35,37,-1,39,41,-1,-1,-1,43,-1,-1,-1,-1,-1,-1,-1,-1,-1,-1,-1,-1,-1,-1,-1,-1,-1,-1],"loss_changes":[7.916003E0,5.7023835E0,1.0230699E0,3.397011E0,2.8957882E0,1.324296E0,4.3104774E-1,3.5452807E0,4.281667E0,2.3095355E0,3.9180114E0,1.9759864E0,5.827131E-1,3.0566123E-1,0E0,5.378632E0,2.8265119E0,7.1413636E0,4.14095E0,1.392016E0,0E0,9.947729E-1,3.5427122E0,0E0,0E0,0E0,1.0043306E0,0E0,0E0,0E0,0E0,0E0,0E0,0E0,0E0,0E0,0E0,0E0,0E0,0E0,0E0,0E0,0E0,0E0,0E0],"parents":[2147483647,0,0,1,1,2,2,3,3,4,4,5,5,6,6,7,7,8,8,9,9,10,10,11,11,12,12,13,13,15,15,16,16,17,17,18,18,19,19,21,21,22,22,26,26],"right_children":[2,4,6,8,10,12,14,16,18,20,22,24,26,28,-1,30,32,34,36,38,-1,40,42,-1,-1,-1,44,-1,-1,-1,-1,-1,-1,-1,-1,-1,-1,-1,-1,-1,-1,-1,-1,-1,-1],"split_conditions":[2.5740555E4,4.8479973E-3,2.5490818E4,3.6166736E-3,2.2760365E4,1.6552605E1,5.824285E1,8.634465E1,6.399169E1,-5.9870754E1,4.061917E1,1.4720065E1,2.5296309E4,2.5770906E4,-2.1539591E-2,1.4557767E2,6.9543915E1,1.0918258E1,8.685208E1,-9.983595E1,6.357168E-2,2.4619031E4,5.3793827E1,-3.4256708E-2,3.205513E-2,-8.558805E-3,2.8665774E-3,-9.1207465E-3,1.6753485E-2,2.8544345E-3,-4.3116834E-2,-3.3215787E-2,2.7900591E-2,-4.6544108E-3,-3.5891473E-2,1.1949939E-2,-2.3248417E-2,3.310912E-2,-1.8243082E-2,5.8752216E-2,4.2530703E-3,-2.808018E-2,1.4500533E-2,-5.828762E-2,-2.1241268E-2],"split_indices":[1,10,2,10,1,3,5,3,3,5,3,3,2,0,0,5,4,9,3,4,0,0,3,0,0,0,10,0,0,0,0,0,0,0,0,0,0,0,0,0,0,0,0,0,0],"split_type":[0,0,0,0,0,0,0,0,0,0,0,0,0,0,0,0,0,0,0,0,0,0,0,0,0,0,0,0,0,0,0,0,0,0,0,0,0,0,0,0,0,0,0,0,0],"sum_hessian":[6.7786115E2,6.582723E2,1.958882E1,6.234174E2,3.4854908E1,1.536312E1,4.225699E0,4.1307797E2,2.1033943E2,8.473072E0,2.6381836E1,2.4950728E0,1.2868048E1,2.7326407E0,1.4930582E0,3.9234595E2,2.0732014E1,1.4928491E2,6.1054512E1,3.377291E0,5.095781E0,4.8869166E0,2.1494919E1,1.2469418E0,1.248131E0,1.742889E0,1.1125158E1,1.2406936E0,1.491947E0,3.8687503E2,5.470938E0,1.2478676E0,1.9484146E1,1.2887215E2,2.0412766E1,5.2090603E1,8.963907E0,1.6711473E0,1.7061435E0,3.6652882E0,1.2216284E0,5.9325633E0,1.5562356E1,6.395464E0,4.729695E0],"tree_param":{"num_deleted":"0","num_feature":"11","num_nodes":"45","size_leaf_vector":"1"}},{"base_weights":[-5.626635E-3,-4.951183E-2,1.9857626E-1,-1.2404153E-1,2.6675656E-2,4.3904924E-1,-9.8013505E-2,-7.6824117E-1,-1.011272E-1,4.5700872E-1,-7.144824E-2,8.4772664E-1,2.7439898E-1,-9.6156305E-1,6.0926482E-2,-7.408557E-2,-2.0992088E-1,-1.954034E-1,4.773654E-2,9.8578435E-1,2.5207403E-1,1.4307548E-2,-3.714464E-1,-1.5824158E-2,9.864143E-1,-1.5399513E-1,3.8796937E-1,-7.0753716E-2,-5.36307E-1,2.9135457E-1,-1.572076E-1,-2.733965E-2,3.338464E-2,-1.3761541E-3,-2.3477115E-2,-1.339729E-2,1.1224381E-2,-1.2101225E-2,5.9043E-2,-3.029629E-2,1.919712E-2,1.7308025E-3,-5.027911E-2,-3.324557E-2,2.6918633E-3,2.9819155E-2,6.544284E-2,-3.0626953E-2,2.075869E-2,4.224744E-2,1.0008235E-2,-3.859007E-2,9.92498E-3,2.0726148E-2,-4.463681E-2,-2.9444331E-2,1.0154198E-2],"categories":[],"categories_nodes":[],"categories_segments":[],"categories_sizes":[],"default_left":[0,0,0,0,0,0,0,0,0,0,0,0,0,0,0,0,0,0,0,0,0,0,0,0,0,0,0,0,0,0,0,0,0,0,0,0,0,0,0,0,0,0,0,0,0,0,0,0,0,0,0,0,0,0,0,0,0],"id":15,"left_children":[1,3,5,7,9,11,13,15,17,19,21,23,25,27,29,-1,31,33,35,37,39,41,43,-1,45,47,49,-1,51,53,55,-1,-1,-1,-1,-1,-1,-1,-1,-1,-1,-1,-1,-1,-1,-1,-1,-1,-1,-1,-1,-1,-1,-1,-1,-1,-1],"loss_changes":[6.0369387E0,3.151241E0,8.542495E0,4.0616875E0,1.1643402E1,4.208026E0,7.4944906E0,3.4654136E0,3.8257983E0,5.298806E0,5.788033E0,3.2949781E0,2.4203844E0,8.7672806E-1,2.392929E0,0E0,2.281899E0,7.6586747E0,5.988403E0,3.6281824E0,4.558815E0,3.6754265E0,6.276885E0,0E0,1.3259659E0,3.0947535E0,3.14678E0,0E0,1.1892385E0,3.7329612E0,3.951443E0,0E0,0E0,0E0,0E0,0E0,0E0,0E0,0E0,0E0,0E0,0E0,0E0,0E0,0E0,0E0,0E0,0E0,0E0,0E0,0E0,0E0,0E0,0E0,0E0,0E0,0E0],"parents":[2147483647,0,0,1,1,2,2,3,3,4,4,5,5,6,6,7,7,8,8,9,9,10,10,11,11,12,12,13,13,14,14,16,16,17,17,18,18,19,19,20,20,21,21,22,22,24,24,25,25,26,26,28,28,29,29,30,30],"right_children":[2,4,6,8,10,12,14,16,18,20,22,24,26,28,30,-1,32,34,36,38,40,42,44,-1,46,48,50,-1,52,54,56,-1,-1,-1,-1,-1,-1,-1,-1,-1,-1,-1,-1,-1,-1,-1,-1,-1,-1,-1,-1,-1,-1,-1,-1,-1,-1],"split_conditions":[4.208326E-3,2.5008501E1,2.3819113E4,2.0322825E-3,4.30738E1,4.454975E-3,2.4028744E4,2.5203943E4,2.4717336E4,6.0108025E1,1.9757892E-3,-1.0345001E2,4.624764E-3,2.3855785E4,4.9433197E1,-7.408557E-2,1.4185838E1,4.5999542E1,6.940396E-4,4.698266E1,6.2825867E1,2.5832664E4,8.478425E1,-1.5824158E-2,-3.720308E1,2.2293248E4,3.5243E1,-7.0753716E-2,6.304426E1,2.518507E4,6.1813942E1,-2.733965E-2,3.338464E-2,-1.3761541E-3,-2.3477115E-2,-1.339729E-2,1.1224381E-2,-1.2101225E-2,5.9043E-2,-3.029629E-2,1.919712E-2,1.7308025E-3,-5.027911E-2,-3.324557E-2,2.6918633E-3,2.9819155E-2,6.544284E-2,-3.0626953E-2,2.075869E-2,4.224744E-2,1.0008235E-2,-3.859007E-2,9.92498E-3,2.0726148E-2,-4.463681E-2,-2.9444331E-2,1.0154198E-2],"split_indices":[6,4,1,6,5,6,1,0,2,3,7,4,6,1,3,0,5,3,7,3,3,1,5,0,4,0,3,0,4,0,3,0,0,0,0,0,0,0,0,0,0,0,0,0,0,0,0,0,0,0,0,0,0,0,0,0,0],"split_type":[0,0,0,0,0,0,0,0,0,0,0,0,0,0,0,0,0,0,0,0,0,0,0,0,0,0,0,0,0,0,0,0,0,0,0,0,0,0,0,0,0,0,0,0,0,0,0,0,0,0,0,0,0,0,0,0,0],"sum_hessian":[6.7155676E2,5.5338617E2,1.1817056E2,2.7941904E2,2.7396716E2,6.4993744E1,5.317681E1,8.480368E0,2.7093866E2,5.0191105E1,2.2377605E2,1.7473707E1,4.752004E1,7.4810534E0,4.569576E1,2.9968538E0,5.483514E0,1.6569226E2,1.05246414E2,1.2954769E1,3.7236336E1,1.7476967E2,4.9006367E1,1.7235377E0,1.575017E1,9.883386E0,3.7636654E1,2.4938858E0,4.987168E0,2.205844E1,2.363732E1,4.2349014E0,1.2486125E0,1.0344427E2,6.2247986E1,3.759132E1,6.76551E1,1.7430878E0,1.1211681E1,4.481643E0,3.2754692E1,1.7230473E2,2.4649498E0,2.8663677E1,2.0342691E1,8.417642E0,7.3325286E0,5.431425E0,4.45196E0,9.943164E0,2.769349E1,3.7386432E0,1.2485247E0,2.0568808E1,1.4896317E0,1.0464696E1,1.3172624E1],"tree_param":{"num_deleted":"0","num_feature":"11","num_nodes":"57","size_leaf_vector":"1"}},{"base_weights":[-2.0245798E-2,-4.2947333E-2,3.310429E-1,2.7957577E-1,-6.752856E-2,5.6678015E-1,-3.35597E-1,-1.0190871E-1,5.3761727E-1,-9.697148E-3,-1.771887E-1,1.0347164E0,2.4041474E-1,-9.190243E-1,3.043327E-1,7.190256E-1,-2.9819182E-1,6.178568E-2,2.8736642E-1,-1.629737E-1,6.0009953E-2,-2.548171E-1,2.2797409E-1,-9.23606E-3,6.070291E-2,4.9117967E-1,-4.3178484E-2,-3.4418255E-3,-6.501233E-2,3.9508812E-2,-2.998469E-1,6.208262E-2,-1.2020941E-2,-1.7208342E-3,-5.4872777E-2,-1.311751E-3,3.9394964E-2,-1.4925385E-2,1.2626587E-2,1.77777E-2,-2.305389E-5,-3.3273262E-3,-2.0779664E-2,2.1566529E-2,-3.91916E-2,-3.3932026E-2,3.3662066E-2,1.0320191E-2,-3.365311E-2],"categories":[],"categories_nodes":[],"categories_segments":[],"categories_sizes":[],"default_left":[0,0,0,0,0,0,0,0,0,0,0,0,0,0,0,0,0,0,0,0,0,0,0,0,0,0,0,0,0,0,0,0,0,0,0,0,0,0,0,0,0,0,0,0,0,0,0,0,0],"id":16,"left_children":[1,3,5,7,9,11,13,15,17,19,21,23,25,27,29,31,33,-1,35,37,39,41,43,-1,-1,45,-1,-1,-1,-1,47,-1,-1,-1,-1,-1,-1,-1,-1,-1,-1,-1,-1,-1,-1,-1,-1,-1,-1],"loss_changes":[5.4315376E0,5.084534E0,6.6883273E0,4.5282564E0,3.7685597E0,4.4731445E0,4.54718E0,3.30448E0,4.408474E0,4.1798954E0,6.5125437E0,2.9364147E0,5.8274364E0,1.9289994E0,2.0575552E0,2.3009956E0,3.374093E0,0E0,3.3758564E0,6.961606E0,4.8079944E0,5.199587E0,7.2360005E0,0E0,0E0,3.9800642E0,0E0,0E0,0E0,0E0,7.9821706E-1,0E0,0E0,0E0,0E0,0E0,0E0,0E0,0E0,0E0,0E0,0E0,0E0,0E0,0E0,0E0,0E0,0E0,0E0],"parents":[2147483647,0,0,1,1,2,2,3,3,4,4,5,5,6,6,7,7,8,8,9,9,10,10,11,11,12,12,13,13,14,14,15,15,16,16,18,18,19,19,20,20,21,21,22,22,25,25,30,30],"right_children":[2,4,6,8,10,12,14,16,18,20,22,24,26,28,30,32,34,-1,36,38,40,42,44,-1,-1,46,-1,-1,-1,-1,48,-1,-1,-1,-1,-1,-1,-1,-1,-1,-1,-1,-1,-1,-1,-1,-1,-1,-1],"split_conditions":[5.069922E-3,2.1638957E4,5.9342027E0,2.8033506E-3,3.6166736E-3,1.400824E-3,1.8251072E1,3.422947E1,1.7838726E-3,2.5393502E-3,3.235172E-3,2.2181252E4,2.4331014E4,2.3384025E4,2.3929908E4,2.77791E-3,2.687962E-3,6.178568E-2,4.1037677E-3,1.1675389E1,-5.060456E1,2.409364E-3,4.5414343E-3,-9.23606E-3,6.070291E-2,1.7665023E-3,-4.3178484E-2,-3.4418255E-3,-6.501233E-2,3.9508812E-2,2.608134E-3,6.208262E-2,-1.2020941E-2,-1.7208342E-3,-5.4872777E-2,-1.311751E-3,3.9394964E-2,-1.4925385E-2,1.2626587E-2,1.77777E-2,-2.305389E-5,-3.3273262E-3,-2.0779664E-2,2.1566529E-2,-3.91916E-2,-3.3932026E-2,3.3662066E-2,1.0320191E-2,-3.365311E-2],"split_indices":[6,0,9,6,10,7,9,5,8,6,7,0,2,0,0,10,6,0,6,9,5,8,10,0,0,7,0,0,0,0,8,0,0,0,0,0,0,0,0,0,0,0,0,0,0,0,0,0,0],"split_type":[0,0,0,0,0,0,0,0,0,0,0,0,0,0,0,0,0,0,0,0,0,0,0,0,0,0,0,0,0,0,0,0,0,0,0,0,0,0,0,0,0,0,0,0,0,0,0,0,0],"sum_hessian":[6.7830554E2,6.379563E2,4.0349277E1,4.444415E1,5.9351215E2,2.9919083E1,1.0430196E1,1.8176851E1,2.6267298E1,3.8929712E2,2.0421501E2,1.1401467E1,1.8517616E1,5.227826E0,5.202369E0,2.9935255E0,1.5183326E1,5.8923054E0,2.0374992E1,1.2128021E2,2.6801688E2,1.7169052E2,3.2524498E1,1.4579718E0,9.943496E0,1.5542332E1,2.975284E0,1.983923E0,3.243903E0,2.7129414E0,2.489428E0,1.747496E0,1.2460296E0,1.2200083E1,2.9832432E0,1.3109202E1,7.2657905E0,9.1662384E1,2.9617832E1,4.469523E1,2.2332166E2,7.973449E1,9.1956024E1,2.7559244E1,4.9652553E0,1.7258041E0,1.3816527E1,1.2461019E0,1.2433263E0],"tree_param":{"num_deleted":"0","num_feature":"11","num_nodes":"49","size_leaf_vector":"1"}},{"base_weights":[-2.7994972E-2,-7.388203E-2,1.3574624E-1,-6.942699E-3,-3.3057365E-1,4.8422113E-1,3.5900958E-2,-1.1951552E-1,1.022537E-1,-1.0625957E0,-2.566801E-1,7.1532667E-1,2.5071083E-2,-5.9065957E-2,5.771511E-1,-4.252211E-1,-1.6577959E-2,-9.007739E-1,1.2799719E-1,-1.3151922E0,-2.752842E-3,1.9863234E-1,-3.522713E-1,2.89803E-1,6.486601E-2,5.3179616E-1,-3.3500394E-1,1.783354E-1,-2.818933E-1,-1.3064598E-1,8.8057685E-1,-4.37541E-2,-7.733208E-3,-1.9699475E-2,4.25716E-3,-5.9025254E-2,-9.55003E-3,4.0491857E-2,4.020916E-3,-7.719642E-2,-3.2958828E-2,-2.9722515E-2,2.4132257E-2,2.4880094E-2,-2.1345802E-2,4.2431895E-2,-1.5987048E-2,5.4620486E-2,-1.0629891E-3,2.0070845E-2,-3.0708184E-2,-4.6144474E-2,1.5801236E-2,4.934469E-3,-2.4904026E-2,4.1036572E-2,-4.250543E-2,2.7490918E-2,6.9497995E-2],"categories":[],"categories_nodes":[],"categories_segments":[],"categories_sizes":[],"default_left":[0,0,0,0,0,0,0,0,0,0,0,0,0,0,0,0,0,0,0,0,0,0,0,0,0,0,0,0,0,0,0,0,0,0,0,0,0,0,0,0,0,0,0,0,0,0,0,0,0,0,0,0,0,0,0,0,0,0,0],"id":17,"left_children":[1,3,5,7,9,11,13,15,17,19,21,23,25,27,29,31,33,35,37,39,-1,41,43,45,-1,47,49,51,53,55,57,-1,-1,-1,-1,-1,-1,-1,-1,-1,-1,-1,-1,-1,-1,-1,-1,-1,-1,-1,-1,-1,-1,-1,-1,-1,-1,-1,-1],"loss_changes":[5.096417E0,9.094618E0,5.1507335E0,5.1866164E0,5.6493826E0,3.4838147E0,6.0241456E0,6.5297794E0,5.646559E0,2.4013119E0,4.4555783E0,5.0513783E0,2.3832185E0,5.3427696E0,3.8708253E0,6.2285013E0,6.039387E0,8.6349916E-1,6.738676E0,1.4187431E-1,0E0,4.369167E0,5.5184126E0,5.022167E0,0E0,1.6996024E0,1.8250685E0,7.7293305E0,4.327207E0,4.8855066E0,1.3198643E0,0E0,0E0,0E0,0E0,0E0,0E0,0E0,0E0,0E0,0E0,0E0,0E0,0E0,0E0,0E0,0E0,0E0,0E0,0E0,0E0,0E0,0E0,0E0,0E0,0E0,0E0,0E0,0E0],"parents":[2147483647,0,0,1,1,2,2,3,3,4,4,5,5,6,6,7,7,8,8,9,9,10,10,11,11,12,12,13,13,14,14,15,15,16,16,17,17,18,18,19,19,21,21,22,22,23,23,25,25,26,26,27,27,28,28,29,29,30,30],"right_children":[2,4,6,8,10,12,14,16,18,20,22,24,26,28,30,32,34,36,38,40,-1,42,44,46,-1,48,50,52,54,56,58,-1,-1,-1,-1,-1,-1,-1,-1,-1,-1,-1,-1,-1,-1,-1,-1,-1,-1,-1,-1,-1,-1,-1,-1,-1,-1,-1,-1],"split_conditions":[4.070525E-3,3.7478295E-3,2.2301227E4,2.7837562E-3,1.3064129E-4,-1.188175E1,2.467281E4,-2.0514157E0,5.3393655E-5,1.4077278E1,4.0000037E-4,-5.1981934E1,2.173245E4,2.3847203E4,-1.0416181E2,5.4549205E-4,2.2032332E4,2.4494598E4,2.1618225E4,3.278198E1,-2.752842E-3,-8.777241E0,2.7508598E-3,-8.136993E1,6.486601E-2,4.556704E-3,4.8557943E-4,2.25181E4,4.4323993E-3,1.3745092E-3,3.0985365E-3,-4.37541E-2,-7.733208E-3,-1.9699475E-2,4.25716E-3,-5.9025254E-2,-9.55003E-3,4.0491857E-2,4.020916E-3,-7.719642E-2,-3.2958828E-2,-2.9722515E-2,2.4132257E-2,2.4880094E-2,-2.1345802E-2,4.2431895E-2,-1.5987048E-2,5.4620486E-2,-1.0629891E-3,2.0070845E-2,-3.0708184E-2,-4.6144474E-2,1.5801236E-2,4.934469E-3,-2.4904026E-2,4.1036572E-2,-4.250543E-2,2.7490918E-2,6.9497995E-2],"split_indices":[6,10,1,6,7,5,2,9,7,9,7,4,1,2,5,7,2,2,1,5,0,9,6,4,0,6,7,1,6,7,7,0,0,0,0,0,0,0,0,0,0,0,0,0,0,0,0,0,0,0,0,0,0,0,0,0,0,0,0],"split_type":[0,0,0,0,0,0,0,0,0,0,0,0,0,0,0,0,0,0,0,0,0,0,0,0,0,0,0,0,0,0,0,0,0,0,0,0,0,0,0,0,0,0,0,0,0,0,0,0,0,0,0,0,0,0,0,0,0,0,0],"sum_hessian":[6.7595734E2,5.284208E2,1.4753656E2,4.1993762E2,1.0848313E2,3.200046E1,1.15536095E2,2.0672552E2,2.1321211E2,8.719897E0,9.976323E1,2.0915205E1,1.1085258E1,9.9048134E1,1.648796E1,5.128567E1,1.5543985E2,4.4847617E0,2.0872736E2,6.727834E0,1.992063E0,1.7123589E1,8.263964E1,1.2946985E1,7.96822E0,4.406787E0,6.6784706E0,4.8052467E1,5.0995663E1,5.118211E0,1.1369751E1,1.8421488E1,3.2864185E1,3.23903E1,1.23049545E2,2.7412026E0,1.7435591E0,1.2569945E1,1.9615741E2,3.9849052E0,2.7429292E0,4.2269983E0,1.2896589E1,6.214759E0,7.642488E1,6.549813E0,6.3971725E0,1.7041372E0,2.7026498E0,1.7153767E0,4.963094E0,4.7066307E0,4.3345837E1,1.867069E1,3.232497E1,2.1432886E0,2.9749222E0,8.154292E0,3.2154582E0],"tree_param":{"num_deleted":"0","num_feature":"11","num_nodes":"59","size_leaf_vector":"1"}},{"base_weights":[-1.7536953E-2,-7.381336E-2,1.6334951E-1,3.019273E-1,-1.0722963E-1,2.3313816E-1,-1.6229354E-1,9.0904385E-2,1.004188E0,-2.1282075E-1,-1.5181917E-3,1.392843E-1,7.4644786E-1,-5.0296277E-1,1.7948058E-1,-5.3661626E-2,1.6915414E-1,3.5207617E-1,1.2414616E0,-7.157598E-1,-1.6885726E-1,4.5345286E-1,-7.493746E-2,9.2220527E-1,9.408229E-2,2.6104057E-1,1.1615314E0,-5.86359E-2,-1.1382834E0,7.101593E-1,-1.4846165E-1,1.309212E-2,-2.7696649E-2,-1.6957728E-2,3.9446767E-2,1.9864995E-2,7.27133E-2,-4.917107E-2,1.0697209E-2,-5.1047992E-2,-7.311798E-3,4.635496E-2,-1.9611393E-3,-1.6902018E-3,-2.8893007E-2,8.982312E-3,5.5773046E-2,2.2721056E-2,-1.4443503E-3,-2.6145559E-3,5.5196177E-2,6.4749196E-2,3.8667507E-3,-2.3208825E-2,5.7350367E-2,-2.297148E-2,-7.114263E-2,-1.6885394E-3,4.8301484E-2,6.233386E-3,-3.8624343E-2],"categories":[],"categories_nodes":[],"categories_segments":[],"categories_sizes":[],"default_left":[0,0,0,0,0,0,0,0,0,0,0,0,0,0,0,0,0,0,0,0,0,0,0,0,0,0,0,0,0,0,0,0,0,0,0,0,0,0,0,0,0,0,0,0,0,0,0,0,0,0,0,0,0,0,0,0,0,0,0,0,0],"id":18,"left_children":[1,3,5,7,9,11,13,15,17,19,21,23,25,27,29,-1,31,33,35,37,39,41,43,45,47,49,51,53,55,57,59,-1,-1,-1,-1,-1,-1,-1,-1,-1,-1,-1,-1,-1,-1,-1,-1,-1,-1,-1,-1,-1,-1,-1,-1,-1,-1,-1,-1,-1,-1],"loss_changes":[6.848643E0,6.4725246E0,3.6666155E0,6.155468E0,5.2656336E0,6.2506475E0,3.4400172E0,3.2343118E0,1.0545406E0,5.0975637E0,7.9425135E0,3.9031992E0,3.7587194E0,4.074811E0,2.7330892E0,0E0,2.3075414E0,1.4657093E0,6.2088203E-1,4.854683E0,4.059495E0,7.7461214E0,4.2154465E0,6.6642666E-1,4.7855363E0,2.8526323E0,1.4302664E0,5.2690682E0,5.0222254E-1,1.1632469E0,1.8277981E0,0E0,0E0,0E0,0E0,0E0,0E0,0E0,0E0,0E0,0E0,0E0,0E0,0E0,0E0,0E0,0E0,0E0,0E0,0E0,0E0,0E0,0E0,0E0,0E0,0E0,0E0,0E0,0E0,0E0,0E0],"parents":[2147483647,0,0,1,1,2,2,3,3,4,4,5,5,6,6,7,7,8,8,9,9,10,10,11,11,12,12,13,13,14,14,16,16,17,17,18,18,19,19,20,20,21,21,22,22,23,23,24,24,25,25,26,26,27,27,28,28,29,29,30,30],"right_children":[2,4,6,8,10,12,14,16,18,20,22,24,26,28,30,-1,32,34,36,38,40,42,44,46,48,50,52,54,56,58,60,-1,-1,-1,-1,-1,-1,-1,-1,-1,-1,-1,-1,-1,-1,-1,-1,-1,-1,-1,-1,-1,-1,-1,-1,-1,-1,-1,-1,-1,-1],"split_conditions":[3.968466E-3,2.1475871E4,6.0670803E1,3.052845E-3,2.5008501E1,3.5714066E1,1.8251072E1,2.0802955E-3,-2.8019888E0,1.5634384E-4,3.9089474E1,-3.7261974E1,1.3100712E-3,4.9928124E-3,9.706018E-4,-5.3661626E-2,2.1618225E4,3.2370426E-3,5.806027E-4,3.6486254E0,1.9976185E-3,4.902746E0,3.7358222E-3,2.289337E4,2.2301227E4,4.421674E-3,8.1911415E1,1.5179923E1,1.4406725E1,1.0114127E2,2.3998566E4,1.309212E-2,-2.7696649E-2,-1.6957728E-2,3.9446767E-2,1.9864995E-2,7.27133E-2,-4.917107E-2,1.0697209E-2,-5.1047992E-2,-7.311798E-3,4.635496E-2,-1.9611393E-3,-1.6902018E-3,-2.8893007E-2,8.982312E-3,5.5773046E-2,2.2721056E-2,-1.4443503E-3,-2.6145559E-3,5.5196177E-2,6.4749196E-2,3.8667507E-3,-2.3208825E-2,5.7350367E-2,-2.297148E-2,-7.114263E-2,-1.6885394E-3,4.8301484E-2,6.233386E-3,-3.8624343E-2],"split_indices":[6,2,5,10,4,4,9,6,9,7,5,9,7,6,7,0,1,6,7,5,10,9,6,1,1,10,4,9,9,4,2,0,0,0,0,0,0,0,0,0,0,0,0,0,0,0,0,0,0,0,0,0,0,0,0,0,0,0,0,0,0],"split_type":[0,0,0,0,0,0,0,0,0,0,0,0,0,0,0,0,0,0,0,0,0,0,0,0,0,0,0,0,0,0,0,0,0,0,0,0,0,0,0,0,0,0,0,0,0,0,0,0,0,0,0,0,0,0,0,0,0,0,0,0,0],"sum_hessian":[6.7059406E2,5.119202E2,1.5867387E2,4.1152794E1,4.707674E2,1.309039E2,2.7769985E1,3.2512524E1,8.640271E0,2.3501082E2,2.3575658E2,1.1174391E2,1.915998E1,1.367128E1,1.4098706E1,1.2468858E0,3.1265638E1,2.9677339E0,5.6725373E0,1.7663292E1,2.1734753E2,3.2038895E1,2.0371768E2,5.04037E0,1.06703545E2,9.582683E0,9.577298E0,8.687653E0,4.9836273E0,4.9397163E0,9.15899E0,2.8278648E1,2.9869907E0,1.2358822E0,1.7318517E0,1.7193027E0,3.9532347E0,1.366994E1,3.9933517E0,4.4795237E0,2.1286801E2,1.5885348E1,1.615355E1,1.8930211E2,1.4415573E1,1.4393675E0,3.6010025E0,2.6463053E1,8.0240486E1,7.6695724E0,1.9131103E0,8.354531E0,1.222767E0,6.9611397E0,1.7265122E0,2.2442741E0,2.7393532E0,1.4863232E0,3.4533932E0,6.9272313E0,2.2317579E0],"tree_param":{"num_deleted":"0","num_feature":"11","num_nodes":"61","size_leaf_vector":"1"}},{"base_weights":[3.209931E-3,-7.7463984E-2,1.5492025E-1,-1.0598884E-1,4.126719E-1,-1.7091027E-1,2.4322803E-1,-4.0922802E-2,-2.3834608E-1,5.6023437E-1,-4.7785148E-1,-6.328511E-1,2.265883E-1,5.096744E-1,6.537654E-2,-1.4300504E-1,1.5454024E-1,-3.7092072E-1,9.700624E-3,-1.4958321E-2,6.514203E-1,-9.425775E-3,-3.0935923E-2,-1.0467013E0,-2.7660355E-1,-3.9990056E-1,6.6204405E-1,5.535546E-1,-3.9525273E-1,2.774978E-1,-1.0882399E-1,8.810475E-3,-1.1140494E-2,-2.9101884E-2,1.0498534E-2,-6.7515983E-3,-4.774432E-2,6.1087746E-2,-3.0802812E-3,4.0168658E-2,-1.1399427E-3,-6.495118E-3,-6.776261E-2,5.5997646E-3,-4.4803064E-2,1.3524199E-2,-4.5844782E-2,4.307416E-2,-4.0850542E-2,3.2147285E-2,1.7573296E-3,7.355505E-3,-3.486009E-2,1.0233762E-2,6.382158E-2,3.4377214E-2,-9.517067E-3],"categories":[],"categories_nodes":[],"categories_segments":[],"categories_sizes":[],"default_left":[0,0,0,0,0,0,0,0,0,0,0,0,0,0,0,0,0,0,0,0,0,0,0,0,0,0,0,0,0,0,0,0,0,0,0,0,0,0,0,0,0,0,0,0,0,0,0,0,0,0,0,0,0,0,0,0,0],"id":19,"left_children":[1,3,5,7,9,11,13,15,17,19,21,23,25,27,29,31,33,35,37,-1,39,-1,-1,41,43,45,47,49,51,53,55,-1,-1,-1,-1,-1,-1,-1,-1,-1,-1,-1,-1,-1,-1,-1,-1,-1,-1,-1,-1,-1,-1,-1,-1,-1,-1],"loss_changes":[8.184482E0,6.1477814E0,6.721116E0,3.550243E0,3.44985E0,9.340567E0,8.641289E0,5.5760193E0,4.476982E0,1.8588777E0,4.565656E-2,3.1647968E0,7.810111E0,3.122652E0,4.1290917E0,4.7105837E0,4.0407953E0,1.20863E1,4.254541E0,0E0,2.0172796E0,0E0,0E0,2.7883596E0,3.4584804E0,4.3948226E0,5.6280646E0,3.22888E0,7.519793E-1,3.397852E0,4.1314554E0,0E0,0E0,0E0,0E0,0E0,0E0,0E0,0E0,0E0,0E0,0E0,0E0,0E0,0E0,0E0,0E0,0E0,0E0,0E0,0E0,0E0,0E0,0E0,0E0,0E0,0E0],"parents":[2147483647,0,0,1,1,2,2,3,3,4,4,5,5,6,6,7,7,8,8,9,9,10,10,11,11,12,12,13,13,14,14,15,15,16,16,17,17,18,18,20,20,23,23,24,24,25,25,26,26,27,27,28,28,29,29,30,30],"right_children":[2,4,6,8,10,12,14,16,18,20,22,24,26,28,30,32,34,36,38,-1,40,-1,-1,42,44,46,48,50,52,54,56,-1,-1,-1,-1,-1,-1,-1,-1,-1,-1,-1,-1,-1,-1,-1,-1,-1,-1,-1,-1,-1,-1,-1,-1,-1,-1],"split_conditions":[6.2349125E1,5.155244E-3,2.4181681E-3,3.6422266E-3,4.30738E1,1.0141816E1,4.8592834E1,3.0602862E-3,3.9330903E-3,3.443128E-3,4.6364784E1,2.444895E4,1.4365381E-3,7.2614406E-3,2.3240043E4,-5.489626E1,1.0540475E-3,2.9313103E-3,4.0095104E-3,-1.4958321E-2,5.7111196E-3,-9.425775E-3,-3.0935923E-2,1.2442794E-3,7.259781E1,8.018183E1,3.5320271E-3,8.051346E1,3.514715E-3,2.2993652E4,9.716397E-4,8.810475E-3,-1.1140494E-2,-2.9101884E-2,1.0498534E-2,-6.7515983E-3,-4.774432E-2,6.1087746E-2,-3.0802812E-3,4.0168658E-2,-1.1399427E-3,-6.495118E-3,-6.776261E-2,5.5997646E-3,-4.4803064E-2,1.3524199E-2,-4.5844782E-2,4.307416E-2,-4.0850542E-2,3.2147285E-2,1.7573296E-3,7.355505E-3,-3.486009E-2,1.0233762E-2,6.382158E-2,3.4377214E-2,-9.517067E-3],"split_indices":[3,6,6,10,5,9,5,10,8,10,3,2,8,8,1,5,8,8,8,0,10,0,0,8,3,5,8,3,6,2,8,0,0,0,0,0,0,0,0,0,0,0,0,0,0,0,0,0,0,0,0,0,0,0,0,0,0],"split_type":[0,0,0,0,0,0,0,0,0,0,0,0,0,0,0,0,0,0,0,0,0,0,0,0,0,0,0,0,0,0,0,0,0,0,0,0,0,0,0,0,0,0,0,0,0,0,0,0,0,0,0,0,0,0,0,0,0],"sum_hessian":[6.667373E2,4.3559396E2,2.3114331E2,4.123782E2,2.3215763E1,4.9087837E1,1.8205548E2,2.7734583E2,1.3503238E2,2.0233845E1,2.9819176E0,2.2429728E1,2.6658108E1,7.2129585E1,1.099259E2,1.8236993E2,9.497588E1,8.767628E1,4.73561E1,1.7221584E0,1.8511686E1,1.7420526E0,1.2398651E0,9.479423E0,1.2950305E1,1.0964773E1,1.5693335E1,6.9164085E1,2.9655004E0,4.930049E1,6.0625412E1,3.623282E1,1.4613713E2,5.982195E0,8.899369E1,6.3327015E1,2.4349262E1,1.7347714E0,4.5621326E1,1.4950615E1,3.5610723E0,2.7447984E0,6.7346244E0,8.461459E0,4.488846E0,4.981764E0,5.9830093E0,1.419658E1,1.4967543E0,5.8786987E1,1.0377096E1,1.2439348E0,1.7215655E0,4.7073696E1,2.2267933E0,4.9391346E0,5.5686275E1],"tree_param":{"num_deleted":"0","num_feature":"11","num_nodes":"57","size_leaf_vector":"1"}},{"base_weights":[-4.6237856E-3,-4.7643993E-2,1.9576602E-1,-1.7259826E-1,1.4758551E-2,6.838119E-1,1.2841389E-1,-4.909441E-1,-7.35281E-3,2.93576E-2,-9.3373513E-1,1.1271674E-1,1.1410731E0,4.133668E-1,-1.7483088E-3,-5.5421394E-1,4.8318632E-2,1.78025E-1,-2.0884001E-1,1.6819772E-1,-5.094462E-2,4.1731214E-3,-6.5892E-2,-5.8030594E-2,5.5765855E-1,1.3189034E0,1.1038895E-2,8.5185033E-1,1.2284253E-1,-5.580952E-1,1.3884932E-1,1.5913827E-2,-3.1020403E-2,-2.5259614E-2,1.3980678E-2,5.784884E-2,-1.32137565E-2,-7.295052E-3,2.6377356E-2,-6.3138865E-2,-1.5509387E-3,4.9749438E-2,-2.4636243E-2,7.1680866E-2,2.209833E-2,-1.3321595E-2,5.2279558E-2,-1.9033778E-2,2.6340222E-2,-4.3435514E-2,4.3603357E-2,2.918655E-2,-6.521854E-3],"categories":[],"categories_nodes":[],"categories_segments":[],"categories_sizes":[],"default_left":[0,0,0,0,0,0,0,0,0,0,0,0,0,0,0,0,0,0,0,0,0,0,0,0,0,0,0,0,0,0,0,0,0,0,0,0,0,0,0,0,0,0,0,0,0,0,0,0,0,0,0,0,0],"id":20,"left_children":[1,3,5,7,9,11,13,15,17,19,21,23,25,27,29,31,-1,33,35,37,39,-1,-1,-1,41,43,-1,45,47,49,51,-1,-1,-1,-1,-1,-1,-1,-1,-1,-1,-1,-1,-1,-1,-1,-1,-1,-1,-1,-1,-1,-1],"loss_changes":[5.804382E0,4.32401E0,3.8239336E0,9.710972E0,5.1583767E0,3.579588E0,3.9249682E0,6.3524876E0,4.6157827E0,4.0880146E0,2.316481E0,4.8531833E0,9.814701E-1,4.122095E0,5.836404E0,3.7260895E0,0E0,4.609908E0,4.7879763E0,1.5236833E1,5.5770264E0,0E0,0E0,0E0,3.3276649E0,1.7595291E-3,0E0,3.1068573E0,4.4974732E0,7.4439588E0,7.2128935E0,0E0,0E0,0E0,0E0,0E0,0E0,0E0,0E0,0E0,0E0,0E0,0E0,0E0,0E0,0E0,0E0,0E0,0E0,0E0,0E0,0E0,0E0],"parents":[2147483647,0,0,1,1,2,2,3,3,4,4,5,5,6,6,7,7,8,8,9,9,10,10,11,11,12,12,13,13,14,14,15,15,17,17,18,18,19,19,20,20,24,24,25,25,27,27,28,28,29,29,30,30],"right_children":[2,4,6,8,10,12,14,16,18,20,22,24,26,28,30,32,-1,34,36,38,40,-1,-1,-1,42,44,-1,46,48,50,52,-1,-1,-1,-1,-1,-1,-1,-1,-1,-1,-1,-1,-1,-1,-1,-1,-1,-1,-1,-1,-1,-1],"split_conditions":[4.208326E-3,-9.791364E0,4.30099E-3,6.940396E-4,2.5832664E4,-4.3692413E1,-8.328395E1,4.223955E-3,3.1688123E-3,5.8801484E-4,5.4549205E-4,3.175348E-3,6.789237E1,1.4546149E-3,1.8762362E-3,2.2053266E4,4.8318632E-2,1.8555934E-3,7.3066686E-4,2.8388505E-3,6.082758E-4,4.1731214E-3,-6.5892E-2,-5.8030594E-2,2.4494598E4,4.421674E-3,1.1038895E-2,4.3862183E-3,3.0501746E-3,1.0848856E2,3.1735622E-3,1.5913827E-2,-3.1020403E-2,-2.5259614E-2,1.3980678E-2,5.784884E-2,-1.32137565E-2,-7.295052E-3,2.6377356E-2,-6.3138865E-2,-1.5509387E-3,4.9749438E-2,-2.4636243E-2,7.1680866E-2,2.209833E-2,-1.3321595E-2,5.2279558E-2,-1.9033778E-2,2.6340222E-2,-4.3435514E-2,4.3603357E-2,2.918655E-2,-6.521854E-3],"split_indices":[6,4,6,7,1,4,4,8,10,7,7,10,4,7,8,2,0,8,7,6,7,0,0,0,2,10,0,6,7,5,8,0,0,0,0,0,0,0,0,0,0,0,0,0,0,0,0,0,0,0,0,0,0],"split_type":[0,0,0,0,0,0,0,0,0,0,0,0,0,0,0,0,0,0,0,0,0,0,0,0,0,0,0,0,0,0,0,0,0,0,0,0,0,0,0,0,0,0,0,0,0,0,0,0,0,0,0,0,0],"sum_hessian":[6.71217E2,5.532138E2,1.1800315E2,1.8366962E2,3.695442E2,1.320009E1,1.04803055E2,6.2087284E1,1.2158233E2,3.6489682E2,4.64738E0,6.423714E0,6.7763767E0,3.2179485E1,7.262357E1,6.0097824E1,1.9894614E0,6.338321E1,5.8199123E1,1.333112E2,2.3158562E2,1.4884177E0,3.158962E0,1.2468985E0,5.1768155E0,5.3160205E0,1.4603559E0,1.2054186E1,2.01253E1,1.4051627E1,5.8571945E1,3.9694283E0,5.6128395E1,7.690316E0,5.569289E1,1.4949737E0,5.670415E1,7.14513E1,6.18599E1,2.7372963E0,2.2884831E2,3.692267E0,1.4845487E0,4.1396976E0,1.1763232E0,1.7245852E0,1.03296E1,8.984376E0,1.11409235E1,1.18668585E1,2.1847682E0,2.1645021E1,3.692692E1],"tree_param":{"num_deleted":"0","num_feature":"11","num_nodes":"53","size_leaf_vector":"1"}},{"base_weights":[-1.8959222E-2,-7.487166E-2,1.4541756E-1,-5.6884028E-2,-6.8916786E-1,3.441271E-1,-1.9048313E-2,-1.1139074E-1,1.7359848E-1,4.169927E-2,-9.7553766E-1,6.26545E-1,1.0098303E-1,-1.2460759E-1,4.4542688E-1,-3.0056727E-1,-1.3160922E-2,2.7597803E-1,-4.4691288E-1,-3.7330732E-1,-1.1518666E0,-5.7478216E-2,7.472821E-1,6.549695E-1,-5.6021135E-2,-3.3660462E-1,1.8325141E-1,1.0124372E0,-4.9866457E-2,5.45126E-2,-1.6102435E-2,1.6425372E-3,-2.7795369E-2,3.277503E-3,2.2605004E-2,-3.1764254E-2,3.224055E-2,-6.026609E-2,2.6012767E-2,-6.3164115E-2,-1.2764786E-2,3.1263243E-2,-2.987591E-2,4.2199127E-2,-1.5672484E-2,-4.2049694E-3,5.2357465E-2,-1.6376304E-2,1.4783575E-2,-2.5973892E-2,3.1843465E-3,4.4962686E-2,8.636335E-4,9.89605E-3,5.6457616E-2,2.956215E-2,-2.859871E-2],"categories":[],"categories_nodes":[],"categories_segments":[],"categories_sizes":[],"default_left":[0,0,0,0,0,0,0,0,0,0,0,0,0,0,0,0,0,0,0,0,0,0,0,0,0,0,0,0,0,0,0,0,0,0,0,0,0,0,0,0,0,0,0,0,0,0,0,0,0,0,0,0,0,0,0,0,0],"id":21,"left_children":[1,3,5,7,9,11,13,15,17,-1,19,21,23,25,27,29,31,33,35,37,39,41,43,45,47,49,51,53,55,-1,-1,-1,-1,-1,-1,-1,-1,-1,-1,-1,-1,-1,-1,-1,-1,-1,-1,-1,-1,-1,-1,-1,-1,-1,-1,-1,-1],"loss_changes":[6.065143E0,5.399481E0,5.4818E0,6.0405574E0,6.8820004E0,5.1501694E0,4.5963464E0,7.2104154E0,5.971627E0,0E0,8.6251163E-1,2.9278975E0,3.688902E0,5.0378437E0,4.928317E0,4.3140717E0,6.425894E0,2.921877E0,3.169391E0,3.7764523E0,5.7007504E-1,2.64832E0,3.3174114E0,2.798492E0,3.308879E0,3.3641682E0,3.756518E0,5.5084324E-1,3.7603776E0,0E0,0E0,0E0,0E0,0E0,0E0,0E0,0E0,0E0,0E0,0E0,0E0,0E0,0E0,0E0,0E0,0E0,0E0,0E0,0E0,0E0,0E0,0E0,0E0,0E0,0E0,0E0,0E0],"parents":[2147483647,0,0,1,1,2,2,3,3,4,4,5,5,6,6,7,7,8,8,10,10,11,11,12,12,13,13,14,14,15,15,16,16,17,17,18,18,19,19,20,20,21,21,22,22,23,23,24,24,25,25,26,26,27,27,28,28],"right_children":[2,4,6,8,10,12,14,16,18,-1,20,22,24,26,28,30,32,34,36,38,40,42,44,46,48,50,52,54,56,-1,-1,-1,-1,-1,-1,-1,-1,-1,-1,-1,-1,-1,-1,-1,-1,-1,-1,-1,-1,-1,-1,-1,-1,-1,-1,-1,-1],"split_conditions":[3.914095E-3,3.845431E-3,2.3323383E4,1.4077278E1,2.734845E1,4.482805E-3,2.4799498E4,2.6505096E-3,3.4440542E-3,4.169927E-2,-3.1129349E1,-1.5700772E1,3.2173912E1,4.603545E-3,2.5064225E4,-8.928834E1,1.0918258E1,2.0779718E-3,3.8418304E1,-1.15049E1,1.7987032E1,2.608134E-3,7.6320564E1,4.718036E-3,5.739274E1,5.3793827E1,2.3885115E4,1.4699743E-3,3.9330903E-3,5.45126E-2,-1.6102435E-2,1.6425372E-3,-2.7795369E-2,3.277503E-3,2.2605004E-2,-3.1764254E-2,3.224055E-2,-6.026609E-2,2.6012767E-2,-6.3164115E-2,-1.2764786E-2,3.1263243E-2,-2.987591E-2,4.2199127E-2,-1.5672484E-2,-4.2049694E-3,5.2357465E-2,-1.6376304E-2,1.4783575E-2,-2.5973892E-2,3.1843465E-3,4.4962686E-2,8.636335E-4,9.89605E-3,5.6457616E-2,2.956215E-2,-2.859871E-2],"split_indices":[6,6,0,9,3,6,1,6,6,0,5,9,3,6,2,5,9,8,9,9,9,8,3,6,3,3,2,8,8,0,0,0,0,0,0,0,0,0,0,0,0,0,0,0,0,0,0,0,0,0,0,0,0,0,0,0,0],"split_type":[0,0,0,0,0,0,0,0,0,0,0,0,0,0,0,0,0,0,0,0,0,0,0,0,0,0,0,0,0,0,0,0,0,0,0,0,0,0,0,0,0,0,0,0,0,0,0,0,0,0,0,0,0,0,0,0,0],"sum_hessian":[6.5773676E2,4.912004E2,1.6653635E2,4.7828793E2,1.291248E1,7.492215E1,9.161419E1,3.87229E2,9.105892E1,1.7408614E0,1.1171619E1,3.39322E1,4.0989952E1,7.524525E1,1.636894E1,1.3164323E2,2.5558578E2,7.863929E1,1.2419628E1,3.2361252E0,7.9354935E0,5.169406E0,2.8762794E1,8.351204E0,3.263875E1,4.4504982E1,3.074027E1,7.145117E0,9.223824E0,1.2455674E0,1.3039766E2,2.3647772E2,1.910807E1,3.6455273E1,4.2184017E1,1.0948587E1,1.471041E0,1.4951065E0,1.7410189E0,6.694554E0,1.2409397E0,2.2133617E0,2.9560442E0,2.6547007E1,2.2157886E0,3.1675212E0,5.183683E0,1.845799E1,1.4180758E1,3.0344393E1,1.4160588E1,4.953572E0,2.5786697E1,1.2333986E0,5.9117184E0,4.080661E0,5.143163E0],"tree_param":{"num_deleted":"0","num_feature":"11","num_nodes":"57","size_leaf_vector":"1"}},{"base_weights":[1.1894801E-2,2.7589557E-1,-7.817399E-3,6.471774E-1,-1.5191822E-2,-2.0119648E-2,3.9733756E-1,-3.0028183E-2,8.5832167E-1,5.2949816E-2,-1.104482E-1,-6.671439E-2,9.470339E-2,-1.1342161E-1,9.470381E-1,6.228212E-1,-4.810495E-2,5.5546608E-2,1.0728126E0,-3.5153273E-1,5.013298E-1,-1.1370857E-1,1.3622841E-1,1.5868016E-1,-4.6870792E-1,-5.7457983E-1,4.3438387E-1,1.1880344E0,-7.28727E-3,5.477212E-2,-5.2093207E-3,3.3790734E-2,-3.5020344E-2,7.4014984E-2,2.9316057E-2,-3.468796E-2,1.2781111E-2,3.8127713E-2,-1.1546835E-2,-6.6686715E-3,2.1588003E-2,4.1165166E-2,-3.4234065E-3,2.4841582E-2,7.4873964E-4,-7.245662E-2,-1.0611753E-2,6.2159467E-3,-4.4522498E-2,5.0082207E-2,-1.6277552E-2,6.9680445E-2,1.1025844E-2],"categories":[],"categories_nodes":[],"categories_segments":[],"categories_sizes":[],"default_left":[0,0,0,0,0,0,0,0,0,0,0,0,0,0,0,0,0,0,0,0,0,0,0,0,0,0,0,0,0,0,0,0,0,0,0,0,0,0,0,0,0,0,0,0,0,0,0,0,0,0,0,0,0],"id":22,"left_children":[1,3,5,7,9,11,13,15,17,-1,19,21,23,25,27,29,-1,31,33,35,37,39,41,43,45,47,49,51,-1,-1,-1,-1,-1,-1,-1,-1,-1,-1,-1,-1,-1,-1,-1,-1,-1,-1,-1,-1,-1,-1,-1,-1,-1],"loss_changes":[3.3910785E0,4.9027576E0,3.0331616E0,2.8739386E0,2.8136275E0,3.1629214E0,5.142737E0,4.0680103E0,2.5608234E0,0E0,3.8801885E0,4.023752E0,6.2281275E0,2.8237085E0,2.476161E0,1.4745948E0,0E0,2.472426E0,1.5020046E0,4.04257E0,1.6128712E0,3.7239466E0,1.1234255E1,7.479027E0,4.1336174E0,1.4270532E0,2.5792153E0,1.1394672E0,0E0,0E0,0E0,0E0,0E0,0E0,0E0,0E0,0E0,0E0,0E0,0E0,0E0,0E0,0E0,0E0,0E0,0E0,0E0,0E0,0E0,0E0,0E0,0E0,0E0],"parents":[2147483647,0,0,1,1,2,2,3,3,4,4,5,5,6,6,7,7,8,8,10,10,11,11,12,12,13,13,14,14,15,15,17,17,18,18,19,19,20,20,21,21,22,22,23,23,24,24,25,25,26,26,27,27],"right_children":[2,4,6,8,10,12,14,16,18,-1,20,22,24,26,28,30,-1,32,34,36,38,40,42,44,46,48,50,52,-1,-1,-1,-1,-1,-1,-1,-1,-1,-1,-1,-1,-1,-1,-1,-1,-1,-1,-1,-1,-1,-1,-1,-1,-1],"split_conditions":[-9.8079155E1,2.383729E4,9.126695E1,3.6866767E-3,1.043258E1,2.4775809E4,1.75655E1,3.0006924E1,-1.5751373E2,5.2949816E-2,4.4529573E-3,7.290042E1,7.667017E1,2.4152143E4,2.3075332E4,2.2346145E4,-4.810495E-2,4.1174866E1,-2.0398891E1,2.9242372E-3,2.4385948E-3,6.6430354E-3,4.7562675E0,2.4900314E4,2.483573E4,3.6429384E-4,9.495855E1,9.639731E1,-7.28727E-3,5.477212E-2,-5.2093207E-3,3.3790734E-2,-3.5020344E-2,7.4014984E-2,2.9316057E-2,-3.468796E-2,1.2781111E-2,3.8127713E-2,-1.1546835E-2,-6.6686715E-3,2.1588003E-2,4.1165166E-2,-3.4234065E-3,2.4841582E-2,7.4873964E-4,-7.245662E-2,-1.0611753E-2,6.2159467E-3,-4.4522498E-2,5.0082207E-2,-1.6277552E-2,6.9680445E-2,1.1025844E-2],"split_indices":[5,1,3,10,3,2,9,3,5,0,10,3,3,0,0,0,0,3,9,7,7,7,9,2,2,7,3,3,0,0,0,0,0,0,0,0,0,0,0,0,0,0,0,0,0,0,0,0,0,0,0,0,0],"split_type":[0,0,0,0,0,0,0,0,0,0,0,0,0,0,0,0,0,0,0,0,0,0,0,0,0,0,0,0,0,0,0,0,0,0,0,0,0,0,0,0,0,0,0,0,0,0,0,0,0,0,0,0,0],"sum_hessian":[6.502103E2,4.427324E1,6.059371E2,1.8918892E1,2.5354345E1,5.8900275E2,1.693432E1,4.7005496E0,1.4218343E1,1.2411218E0,2.4113224E1,4.1927966E2,1.6972307E2,9.18949E0,7.7448306E0,2.9594517E0,1.741098E0,3.263397E0,1.0954946E1,1.7602116E1,6.5111084E0,3.40802E2,7.847765E1,1.5306097E2,1.6662098E1,4.9627934E0,4.2266965E0,6.2740283E0,1.4708021E0,1.4863839E0,1.4730676E0,1.850803E0,1.412594E0,4.8498697E0,6.105076E0,1.1165806E1,6.4363103E0,4.7686176E0,1.7424906E0,3.296724E2,1.1129633E1,1.7320019E1,6.115764E1,4.491491E1,1.08146065E2,2.4906812E0,1.4171417E1,1.7335465E0,3.229247E0,2.2380319E0,1.9886646E0,4.811337E0,1.4626914E0],"tree_param":{"num_deleted":"0","num_feature":"11","num_nodes":"53","size_leaf_vector":"1"}},{"base_weights":[-9.3260076E-4,-1.04913905E-1,5.306532E-2,-2.4312502E-2,-4.2711365E-1,8.410125E-1,3.7644587E-2,6.332827E-1,-8.084256E-2,-2.8081092E-1,-1.2062027E0,2.2452296E-1,1.1383772E0,-2.6545724E-1,6.540495E-2,-1.03512645E-1,8.4123564E-1,-5.143247E-1,-4.2593535E-3,-4.7876298E-1,1.8555896E-1,-6.700332E-3,-7.064036E-2,4.40278E-2,-3.390528E-2,1.5189486E-2,6.8703875E-2,-7.562414E-1,-5.0407887E-2,7.411048E-2,-8.2695943E-1,2.315886E-2,-4.0405776E-2,5.519892E-2,1.3287403E-2,-3.945375E-2,2.6070574E-2,5.2072094E-3,-1.1985936E-2,1.784239E-2,-3.095572E-2,4.296782E-2,-1.43392235E-2,-4.7030583E-2,7.939081E-3,3.394574E-2,-1.3024022E-2,2.9600844E-2,2.9681313E-3,-5.5398602E-2,-5.8101653E-3],"categories":[],"categories_nodes":[],"categories_segments":[],"categories_sizes":[],"default_left":[0,0,0,0,0,0,0,0,0,0,0,0,0,0,0,0,0,0,0,0,0,0,0,0,0,0,0,0,0,0,0,0,0,0,0,0,0,0,0,0,0,0,0,0,0,0,0,0,0,0,0],"id":23,"left_children":[1,3,5,7,9,11,13,15,17,19,21,23,25,27,29,31,33,35,37,39,41,-1,-1,-1,-1,-1,-1,43,45,47,49,-1,-1,-1,-1,-1,-1,-1,-1,-1,-1,-1,-1,-1,-1,-1,-1,-1,-1,-1,-1],"loss_changes":[3.774553E0,5.9568415E0,5.3448687E0,6.9230747E0,4.8951864E0,1.2928782E0,3.677879E0,2.34652E0,5.678263E0,3.7781017E0,1.3516045E0,2.9623022E0,6.551428E-1,3.8351786E0,3.1635666E0,2.0259113E0,1.4621353E0,7.719997E0,3.7624905E0,3.5438848E0,4.2656283E0,0E0,0E0,0E0,0E0,0E0,0E0,2.0236058E0,4.2505727E0,2.9925654E0,6.582732E-1,0E0,0E0,0E0,0E0,0E0,0E0,0E0,0E0,0E0,0E0,0E0,0E0,0E0,0E0,0E0,0E0,0E0,0E0,0E0,0E0],"parents":[2147483647,0,0,1,1,2,2,3,3,4,4,5,5,6,6,7,7,8,8,9,9,10,10,11,11,12,12,13,13,14,14,15,15,16,16,17,17,18,18,19,19,20,20,27,27,28,28,29,29,30,30],"right_children":[2,4,6,8,10,12,14,16,18,20,22,24,26,28,30,32,34,36,38,40,42,-1,-1,-1,-1,-1,-1,44,46,48,50,-1,-1,-1,-1,-1,-1,-1,-1,-1,-1,-1,-1,-1,-1,-1,-1,-1,-1,-1,-1],"split_conditions":[4.3484303E1,3.8733246E1,4.427576E1,2.193856E4,8.522572E0,2.79633E-3,1.375336E-4,2.1562197E4,1.5309767E-3,3.9330903E-3,2.8848608E-3,1.2346238E1,-4.9649197E1,1.2917284E1,2.5950568E4,2.599206E-3,-6.2240496E0,1.0230442E0,2.2355616E-3,1.326754E-3,3.27932E-3,-6.700332E-3,-7.064036E-2,4.40278E-2,-3.390528E-2,1.5189486E-2,6.8703875E-2,2.8028975E-3,5.9492958E1,1.664475E-4,2.6505096E-3,2.315886E-2,-4.0405776E-2,5.519892E-2,1.3287403E-2,-3.945375E-2,2.6070574E-2,5.2072094E-3,-1.1985936E-2,1.784239E-2,-3.095572E-2,4.296782E-2,-1.43392235E-2,-4.7030583E-2,7.939081E-3,3.394574E-2,-1.3024022E-2,2.9600844E-2,2.9681313E-3,-5.5398602E-2,-5.8101653E-3],"split_indices":[3,3,3,0,9,6,7,1,8,8,6,5,5,5,0,7,5,9,7,8,7,0,0,0,0,0,0,8,3,7,6,0,0,0,0,0,0,0,0,0,0,0,0,0,0,0,0,0,0,0,0],"split_type":[0,0,0,0,0,0,0,0,0,0,0,0,0,0,0,0,0,0,0,0,0,0,0,0,0,0,0,0,0,0,0,0,0,0,0,0,0,0,0,0,0,0,0,0,0,0,0,0,0,0,0],"sum_hessian":[6.702622E2,2.2877597E2,4.4148627E2,1.8385764E2,4.4918324E1,7.446713E0,4.3403955E2,1.374651E1,1.7011113E2,3.8962173E1,5.956151E0,2.994217E0,4.452496E0,3.5698845E1,3.983407E2,3.1363554E0,1.0610154E1,2.4682943E1,1.4542819E2,2.7333721E1,1.1628451E1,1.2286345E0,4.727516E0,1.7481267E0,1.2460903E0,1.4845951E0,2.967901E0,1.010978E1,2.5589066E1,3.954003E2,2.940408E0,1.9282033E0,1.208152E0,6.653924E0,3.9562304E0,1.9696259E1,4.9866858E0,9.996352E1,4.5464672E1,3.7089865E0,2.3624735E1,4.4546094E0,7.1738415E0,8.391076E0,1.7187042E0,5.2232733E0,2.0365791E1,9.86388E0,3.855364E2,1.7067456E0,1.2336625E0],"tree_param":{"num_deleted":"0","num_feature":"11","num_nodes":"51","size_leaf_vector":"1"}},{"base_weights":[1.3899509E-2,3.1687863E-2,-3.9123276E-1,1.9196741E-2,7.5976306E-1,-6.627378E-2,-2.22985E-1,-2.0184027E-1,4.961317E-2,-2.1841861E-1,1.112226E0,9.940994E-2,-1.0094322E0,-5.856826E-1,5.7503477E-2,2.74359E-1,1.7657964E-2,-2.203472E-2,6.3349456E-3,6.112996E-1,6.953609E-2,-6.740867E-1,2.9961616E-1,-1.1551743E0,-1.6132673E-2,-1.1008225E-2,-5.5731583E-2,1.6648797E-2,-1.5354256E-2,4.2326156E-2,8.739253E-3,-1.6207622E-2,2.3752365E-3,5.185281E-2,-1.6521338E-2,1.0145315E-3,-5.347523E-2,4.9473982E-2,2.9217682E-3,-6.5317646E-2,-2.1630235E-2],"categories":[],"categories_nodes":[],"categories_segments":[],"categories_sizes":[],"default_left":[0,0,0,0,0,0,0,0,0,0,0,0,0,0,0,0,0,0,0,0,0,0,0,0,0,0,0,0,0,0,0,0,0,0,0,0,0,0,0,0,0],"id":24,"left_children":[1,3,5,7,9,-1,11,13,15,17,19,21,23,25,27,29,31,-1,-1,33,-1,35,37,39,-1,-1,-1,-1,-1,-1,-1,-1,-1,-1,-1,-1,-1,-1,-1,-1,-1],"loss_changes":[4.852163E0,5.8445215E0,4.1561627E0,4.2752414E0,3.9804802E0,0E0,6.4901924E0,7.692525E0,4.0059857E0,3.4022957E-1,2.8449345E-1,3.1109571E0,3.6967182E-1,5.7697477E0,4.8051014E0,3.8089075E0,5.0145454E0,0E0,0E0,2.223272E0,0E0,1.1666846E0,2.5401776E0,6.09107E-2,0E0,0E0,0E0,0E0,0E0,0E0,0E0,0E0,0E0,0E0,0E0,0E0,0E0,0E0,0E0,0E0,0E0],"parents":[2147483647,0,0,1,1,2,2,3,3,4,4,6,6,7,7,8,8,9,9,10,10,11,11,12,12,13,13,14,14,15,15,16,16,19,19,21,21,22,22,23,23],"right_children":[2,4,6,8,10,-1,12,14,16,18,20,22,24,26,28,30,32,-1,-1,34,-1,36,38,40,-1,-1,-1,-1,-1,-1,-1,-1,-1,-1,-1,-1,-1,-1,-1,-1,-1],"split_conditions":[2.5708412E4,2.547008E4,-1.15049E1,2.2778984E-3,2.5045813E1,-6.627378E-2,6.834965E1,6.767204E0,2.1824377E4,3.4266738E-3,-4.9649197E1,2.5511459E-3,2.5810717E4,2.3442101E0,2.4884324E4,3.57444E1,2.2238385E4,-2.203472E-2,6.3349456E-3,2.6630461E-3,6.953609E-2,2.6683204E-3,2.584984E4,2.5112636E-3,-1.6132673E-2,-1.1008225E-2,-5.5731583E-2,1.6648797E-2,-1.5354256E-2,4.2326156E-2,8.739253E-3,-1.6207622E-2,2.3752365E-3,5.185281E-2,-1.6521338E-2,1.0145315E-3,-5.347523E-2,4.9473982E-2,2.9217682E-3,-6.5317646E-2,-2.1630235E-2],"split_indices":[0,1,9,6,3,0,3,9,1,8,5,10,1,9,1,3,1,0,0,10,0,6,0,8,0,0,0,0,0,0,0,0,0,0,0,0,0,0,0,0,0],"split_type":[0,0,0,0,0,0,0,0,0,0,0,0,0,0,0,0,0,0,0,0,0,0,0,0,0,0,0,0,0,0,0,0,0,0,0,0,0,0,0,0,0],"sum_hessian":[6.7057074E2,6.43249E2,2.7321684E1,6.334084E2,9.840616E0,3.1198313E0,2.4201853E1,7.593691E1,5.574715E2,2.7073321E0,7.1332836E0,1.7784784E1,6.41707E0,3.01117E1,4.5825214E1,6.845206E1,4.8901944E2,1.4782884E0,1.2290437E0,3.6904066E0,3.4428773E0,3.1701086E0,1.4614675E1,4.7310677E0,1.686002E0,1.864425E1,1.1467449E1,2.6152134E1,1.9673079E1,9.034909E0,5.9417145E1,3.847994E1,4.5053952E2,2.4717112E0,1.2186953E0,1.4944503E0,1.6756582E0,2.9821138E0,1.1632561E1,3.244347E0,1.4867208E0],"tree_param":{"num_deleted":"0","num_feature":"11","num_nodes":"41","size_leaf_vector":"1"}},{"base_weights":[4.8284307E-3,-2.325911E-2,2.2833352E-1,-7.136251E-3,-5.777687E-1,3.762603E-1,-2.5872815E-1,-2.6148956E-2,3.6958423E-1,-7.469283E-1,3.5109047E-2,6.3862246E-1,9.662162E-2,5.328761E-1,-4.1885337E-1,-1.5150838E-1,3.2542367E-2,6.3742155E-1,-2.7925685E-1,-1.3293585E-1,-1.1499333E0,-3.8807482E-1,7.7908194E-1,-8.141195E-2,6.726144E-2,5.3289056E-2,-1.1756358E-2,2.723111E-1,-5.8602333E-1,-3.7668631E-3,-2.4662768E-2,9.725503E-3,-1.7705903E-3,3.860179E-2,-1.2685532E-2,-6.0313016E-2,2.3154732E-2,3.8347032E-2,-3.8315963E-2,-7.768778E-2,-3.3260893E-2,-4.2148355E-2,8.364472E-3,-1.941186E-2,4.371079E-2,6.9032894E-3,-3.429865E-2,3.636932E-2,-1.7986046E-2,-4.0642727E-2,6.496165E-3],"categories":[],"categories_nodes":[],"categories_segments":[],"categories_sizes":[],"default_left":[0,0,0,0,0,0,0,0,0,0,0,0,0,0,0,0,0,0,0,0,0,0,0,0,0,0,0,0,0,0,0,0,0,0,0,0,0,0,0,0,0,0,0,0,0,0,0,0,0,0,0],"id":25,"left_children":[1,3,5,7,9,11,13,15,17,19,-1,21,23,25,27,29,31,33,35,37,39,41,43,45,-1,-1,-1,47,49,-1,-1,-1,-1,-1,-1,-1,-1,-1,-1,-1,-1,-1,-1,-1,-1,-1,-1,-1,-1,-1,-1],"loss_changes":[4.217085E0,5.332486E0,5.500489E0,4.1715236E0,4.1734214E0,4.1883774E0,2.5127478E0,4.08159E0,5.040978E0,3.650384E0,0E0,4.5867586E0,6.604882E0,1.6744883E0,1.9601402E0,4.566882E0,4.1696715E0,2.6084194E0,6.6636224E0,4.7037263E0,7.571869E-1,1.212899E0,3.2785873E0,3.6130888E0,0E0,0E0,0E0,1.3309841E0,2.1950002E0,0E0,0E0,0E0,0E0,0E0,0E0,0E0,0E0,0E0,0E0,0E0,0E0,0E0,0E0,0E0,0E0,0E0,0E0,0E0,0E0,0E0,0E0],"parents":[2147483647,0,0,1,1,2,2,3,3,4,4,5,5,6,6,7,7,8,8,9,9,11,11,12,12,13,13,14,14,15,15,16,16,17,17,18,18,19,19,20,20,21,21,22,22,23,23,27,27,28,28],"right_children":[2,4,6,8,10,12,14,16,18,20,-1,22,24,26,28,30,32,34,36,38,40,42,44,46,-1,-1,-1,48,50,-1,-1,-1,-1,-1,-1,-1,-1,-1,-1,-1,-1,-1,-1,-1,-1,-1,-1,-1,-1,-1,-1],"split_conditions":[5.617888E-3,5.2831224E-3,8.902625E0,5.0282306E-3,8.3649956E1,7.2614406E-3,2.8444792E-3,4.3024345E1,9.38152E0,3.4611032E-3,3.5109047E-2,2.8388505E-3,2.5008501E1,4.284185E-3,4.933572E1,3.8733246E1,1.6357849E-3,2.4839558E-3,1.7987032E1,-1.1028165E0,4.1541383E-3,1.084336E1,-1.5162909E2,-1.0137392E1,6.726144E-2,5.3289056E-2,-1.1756358E-2,3.9263363E-3,7.523159E1,-3.7668631E-3,-2.4662768E-2,9.725503E-3,-1.7705903E-3,3.860179E-2,-1.2685532E-2,-6.0313016E-2,2.3154732E-2,3.8347032E-2,-3.8315963E-2,-7.768778E-2,-3.3260893E-2,-4.2148355E-2,8.364472E-3,-1.941186E-2,4.371079E-2,6.9032894E-3,-3.429865E-2,3.636932E-2,-1.7986046E-2,-4.0642727E-2,6.496165E-3],"split_indices":[8,8,9,6,3,8,6,3,9,6,0,6,4,7,5,3,8,7,9,9,6,4,4,5,0,0,0,6,3,0,0,0,0,0,0,0,0,0,0,0,0,0,0,0,0,0,0,0,0,0,0],"split_type":[0,0,0,0,0,0,0,0,0,0,0,0,0,0,0,0,0,0,0,0,0,0,0,0,0,0,0,0,0,0,0,0,0,0,0,0,0,0,0,0,0,0,0,0,0,0,0,0,0,0,0],"sum_hessian":[6.699094E2,5.9591736E2,7.399209E1,5.8006433E2,1.5853018E1,5.6929398E1,1.706269E1,5.530815E2,2.6982878E1,1.4370267E1,1.4827515E0,2.8709696E1,2.8219702E1,2.4790833E0,1.4583608E1,1.7586598E2,3.7721548E2,1.9111412E1,7.8714657E0,6.221481E0,8.148786E0,3.2428668E0,2.546683E1,2.5516247E1,2.703455E0,1.2346498E0,1.2444335E0,2.717822E0,1.1865786E1,1.4481007E2,3.1055906E1,1.1093686E2,2.6627863E2,1.6719427E1,2.391986E0,3.2224934E0,4.6489725E0,2.4829617E0,3.7385192E0,3.2421842E0,4.9066014E0,1.498005E0,1.7448617E0,1.6869175E0,2.3779911E1,1.9286257E1,6.2299895E0,1.4923973E0,1.2254248E0,8.908102E0,2.9576833E0],"tree_param":{"num_deleted":"0","num_feature":"11","num_nodes":"51","size_leaf_vector":"1"}},{"base_weights":[5.012133E-3,2.1212019E-1,-2.4928516E-2,9.726693E-1,1.21073835E-1,-9.667543E-1,-1.5503054E-2,2.4267642E-1,1.2447268E0,-5.978517E-1,1.6382158E-1,-6.3303836E-2,-3.5151523E-3,-2.3872603E-2,9.455219E-1,2.8489957E-2,-1.098756E-2,1.615644E-2,6.91688E-2,1.0034788E-2,-5.904886E-2,-6.4443965E-3,4.2928302E-1,-5.6705815E-1,-1.4503942E-2,5.7473302E-2,8.855725E-3,-1.5460855E-2,1.7320452E-2,3.5733167E-2,-1.4645392E-2,2.6198441E-2,-5.08536E-2,8.821962E-3,-2.2622056E-3],"categories":[],"categories_nodes":[],"categories_segments":[],"categories_sizes":[],"default_left":[0,0,0,0,0,0,0,0,0,0,0,0,0,0,0,0,0,0,0,0,0,0,0,0,0,0,0,0,0,0,0,0,0,0,0],"id":26,"left_children":[1,3,5,7,9,11,13,15,17,19,21,-1,-1,23,25,-1,-1,-1,-1,-1,-1,27,29,31,33,-1,-1,-1,-1,-1,-1,-1,-1,-1,-1],"loss_changes":[4.1006756E0,5.665825E0,5.1153083E0,1.4431362E0,2.425486E0,1.4431529E0,4.6331134E0,6.7402375E-1,3.400488E-1,2.3164551E0,3.2693079E0,0E0,0E0,2.8885846E0,5.7584E-1,0E0,0E0,0E0,0E0,0E0,0E0,4.9162517E0,6.032712E0,5.2587147E0,3.2985713E0,0E0,0E0,0E0,0E0,0E0,0E0,0E0,0E0,0E0,0E0],"parents":[2147483647,0,0,1,1,2,2,3,3,4,4,5,5,6,6,7,7,8,8,9,9,10,10,13,13,14,14,21,21,22,22,23,23,24,24],"right_children":[2,4,6,8,10,12,14,16,18,20,22,-1,-1,24,26,-1,-1,-1,-1,-1,-1,28,30,32,34,-1,-1,-1,-1,-1,-1,-1,-1,-1,-1],"split_conditions":[-8.034751E1,2.2168074E4,-7.689594E1,2.8705762E-3,2.6109319E-3,3.4518358E-3,6.055489E-3,-9.8311905E1,2.1612936E4,-8.235437E1,-9.983595E1,-6.3303836E-2,-3.5151523E-3,-8.315562E1,2.2825287E4,2.8489957E-2,-1.098756E-2,1.615644E-2,6.91688E-2,1.0034788E-2,-5.904886E-2,3.8951314E-3,3.8773844E-3,3.470788E-3,-3.75238E1,5.7473302E-2,8.855725E-3,-1.5460855E-2,1.7320452E-2,3.5733167E-2,-1.4645392E-2,2.6198441E-2,-5.08536E-2,8.821962E-3,-2.2622056E-3],"split_indices":[4,0,4,8,6,8,6,4,1,5,4,0,0,5,0,0,0,0,0,0,0,10,10,6,5,0,0,0,0,0,0,0,0,0,0],"split_type":[0,0,0,0,0,0,0,0,0,0,0,0,0,0,0,0,0,0,0,0,0,0,0,0,0,0,0,0,0,0,0,0,0,0,0],"sum_hessian":[6.5944525E2,8.252329E1,5.76922E2,7.787526E0,7.473576E1,4.7100353E0,5.722119E2,2.6280003E0,5.159526E0,3.4656348E0,7.127013E1,3.2219238E0,1.4881114E0,5.6823834E2,3.973618E0,1.4031891E0,1.2248112E0,1.1102526E0,4.049273E0,1.7394347E0,1.7262002E0,4.4014877E1,2.7255253E1,8.625295E0,5.5961304E2,2.7482846E0,1.2253335E0,2.3755056E1,2.0259819E1,1.9543058E1,7.712195E0,2.4707634E0,6.1545315E0,7.694262E1,4.826704E2],"tree_param":{"num_deleted":"0","num_feature":"11","num_nodes":"35","size_leaf_vector":"1"}},{"base_weights":[-2.0262958E-2,6.988559E-1,-2.7781297E-2,9.762817E-1,-1.5936866E-2,-3.791041E-2,5.365604E-1,5.7519693E-2,9.644576E-3,1.9552667E-1,-5.5817187E-2,7.5620437E-1,-1.7490586E-2,-1.8144737E-1,4.9095613E-1,-4.643093E-1,-4.1344836E-2,2.7927765E-1,1.1076769E0,-3.1235684E-2,8.241708E-3,3.0628705E-2,-2.799636E-2,3.0180512E-3,-3.7537333E-2,-7.3118927E-3,7.99256E-4,3.5177168E-2,-3.223306E-2,6.52138E-2,1.8548021E-2],"categories":[],"categories_nodes":[],"categories_segments":[],"categories_sizes":[],"default_left":[0,0,0,0,0,0,0,0,0,0,0,0,0,0,0,0,0,0,0,0,0,0,0,0,0,0,0,0,0,0,0],"id":27,"left_children":[1,3,5,7,-1,9,11,-1,-1,13,15,17,-1,19,21,23,25,27,29,-1,-1,-1,-1,-1,-1,-1,-1,-1,-1,-1,-1],"loss_changes":[3.5912218E0,2.251675E0,3.7631736E0,5.4838085E-1,0E0,2.7035556E0,2.525011E0,0E0,0E0,5.2248135E0,3.5222428E0,1.3034482E0,0E0,3.3250086E0,3.6817183E0,3.1110344E0,3.488025E0,2.5778785E0,2.6962423E-1,0E0,0E0,0E0,0E0,0E0,0E0,0E0,0E0,0E0,0E0,0E0,0E0],"parents":[2147483647,0,0,1,1,2,2,3,3,5,5,6,6,9,9,10,10,11,11,13,13,14,14,15,15,16,16,17,17,18,18],"right_children":[2,4,6,8,-1,10,12,-1,-1,14,16,18,-1,20,22,24,26,28,30,-1,-1,-1,-1,-1,-1,-1,-1,-1,-1,-1,-1],"split_conditions":[6.5914646E-4,3.158284E-3,2.5490818E4,2.4912352E4,-1.5936866E-2,2.1638957E4,5.925449E1,5.7519693E-2,9.644576E-3,2.088551E4,2.1594703E4,-3.487814E1,-1.7490586E-2,1.8606054E-3,7.911719E1,2.3238263E-3,4.3484303E1,-5.9870754E1,1.1675389E1,-3.1235684E-2,8.241708E-3,3.0628705E-2,-2.799636E-2,3.0180512E-3,-3.7537333E-2,-7.3118927E-3,7.99256E-4,3.5177168E-2,-3.223306E-2,6.52138E-2,1.8548021E-2],"split_indices":[8,10,2,2,0,0,5,0,0,2,2,5,0,8,3,8,3,5,9,0,0,0,0,0,0,0,0,0,0,0,0],"split_type":[0,0,0,0,0,0,0,0,0,0,0,0,0,0,0,0,0,0,0,0,0,0,0,0,0,0,0,0,0,0,0],"sum_hessian":[6.5964087E2,5.8737226E0,6.5376715E2,4.647323E0,1.2263995E0,6.4315625E2,1.0610895E1,3.4189618E0,1.2283614E0,4.5114437E1,5.980418E2,8.621366E0,1.9895294E0,1.9991144E1,2.5123293E1,1.9399343E1,5.7864246E2,4.419274E0,4.2020917E0,8.415111E0,1.1576035E1,2.2891197E1,2.232096E0,7.129475E0,1.2269869E1,2.0394547E2,3.7469702E2,3.1920483E0,1.2272255E0,2.7088273E0,1.4932643E0],"tree_param":{"num_deleted":"0","num_feature":"11","num_nodes":"31","size_leaf_vector":"1"}},{"base_weights":[1.7686391E-3,-5.4896325E-2,1.6353373E-1,-1.3594852E-2,-2.4054706E-1,4.6149808E-1,8.7572075E-2,7.113539E-4,-8.6423326E-1,-7.397068E-2,-7.430419E-1,3.0771744E-1,1.0758989E0,-3.354138E-1,1.6166674E-1,-2.9720938E-2,6.100314E-1,9.7266E-3,-1.1408085E0,7.0749134E-2,-1.6870926E-1,8.0114955E-1,-9.965864E-1,6.7782275E-2,1.6098858E-1,6.1960995E-2,1.5060871E-2,-4.8175496E-1,4.918821E-2,7.104951E-1,1.13134965E-1,2.5180573E-2,-2.4834748E-3,2.1020332E-3,5.8081783E-2,-6.65004E-2,-1.3570997E-2,-3.97135E-2,-3.570595E-3,3.8131904E-3,5.617698E-2,-6.277483E-2,-2.5225127E-2,3.343156E-2,-3.6021022E-3,2.8259411E-2,-3.5530757E-2,9.304377E-3,5.035169E-2,1.582462E-2,-1.2006606E-3],"categories":[],"categories_nodes":[],"categories_segments":[],"categories_sizes":[],"default_left":[0,0,0,0,0,0,0,0,0,0,0,0,0,0,0,0,0,0,0,0,0,0,0,0,0,0,0,0,0,0,0,0,0,0,0,0,0,0,0,0,0,0,0,0,0,0,0,0,0,0,0],"id":28,"left_children":[1,3,5,7,9,11,13,15,17,19,21,23,25,27,29,31,33,-1,35,-1,37,39,41,-1,43,-1,-1,45,-1,47,49,-1,-1,-1,-1,-1,-1,-1,-1,-1,-1,-1,-1,-1,-1,-1,-1,-1,-1,-1,-1],"loss_changes":[6.1321135E0,3.7956991E0,3.887525E0,4.945653E0,7.487118E0,2.9777508E0,4.4269915E0,7.4469795E0,2.1902733E0,9.941201E0,9.53812E0,4.3039155E0,4.630437E-1,4.5516086E0,3.0999074E0,4.094769E0,5.9365253E0,0E0,5.3963184E-1,0E0,3.9336658E0,7.7960014E-1,1.866272E0,0E0,3.2342222E0,0E0,0E0,5.118094E0,0E0,1.2916474E0,3.1002984E0,0E0,0E0,0E0,0E0,0E0,0E0,0E0,0E0,0E0,0E0,0E0,0E0,0E0,0E0,0E0,0E0,0E0,0E0,0E0,0E0],"parents":[2147483647,0,0,1,1,2,2,3,3,4,4,5,5,6,6,7,7,8,8,9,9,10,10,11,11,12,12,13,13,14,14,15,15,16,16,18,18,20,20,21,21,22,22,24,24,27,27,29,29,30,30],"right_children":[2,4,6,8,10,12,14,16,18,20,22,24,26,28,30,32,34,-1,36,-1,38,40,42,-1,44,-1,-1,46,-1,48,50,-1,-1,-1,-1,-1,-1,-1,-1,-1,-1,-1,-1,-1,-1,-1,-1,-1,-1,-1,-1],"split_conditions":[3.914095E-3,3.4440542E-3,3.5788724E-3,7.96192E-3,4.933572E1,3.4920645E-3,3.7614603E-3,3.3672517E-3,2.7159133E-3,2.6497128E-3,1.3016013E-3,3.9848625E-3,4.30738E1,2.4749723E4,2.5377588E1,-8.619791E1,8.455004E0,9.7266E-3,3.6968526E-3,7.0749134E-2,2.946537E-3,2.3620127E4,3.8400225E-3,6.7782275E-2,2.6227152E-3,6.1960995E-2,1.5060871E-2,2.2154797E4,4.918821E-2,1.8331213E1,4.4323993E-3,2.5180573E-2,-2.4834748E-3,2.1020332E-3,5.8081783E-2,-6.65004E-2,-1.3570997E-2,-3.97135E-2,-3.570595E-3,3.8131904E-3,5.617698E-2,-6.277483E-2,-2.5225127E-2,3.343156E-2,-3.6021022E-3,2.8259411E-2,-3.5530757E-2,9.304377E-3,5.035169E-2,1.582462E-2,-1.2006606E-3],"split_indices":[6,6,10,8,5,10,10,6,6,10,8,6,5,1,3,5,5,0,10,0,10,0,10,0,8,0,0,0,0,3,6,0,0,0,0,0,0,0,0,0,0,0,0,0,0,0,0,0,0,0,0],"split_type":[0,0,0,0,0,0,0,0,0,0,0,0,0,0,0,0,0,0,0,0,0,0,0,0,0,0,0,0,0,0,0,0,0,0,0,0,0,0,0,0,0,0,0,0,0,0,0,0,0,0,0],"sum_hessian":[6.669969E2,4.9445435E2,1.7254257E2,4.053499E2,8.910442E1,3.402033E1,1.3852225E2,3.9962805E2,5.72186E0,6.778199E1,2.1322433E1,2.841026E1,5.610067E0,2.0122374E1,1.1839988E2,3.8152417E2,1.8103876E1,1.2465494E0,4.475311E0,3.2211602E0,6.456083E1,2.702611E0,1.8619823E1,2.477438E0,2.5932821E1,4.1380234E0,1.4720435E0,1.8684446E1,1.4379262E0,8.511101E0,1.0988878E2,1.2881689E1,3.686425E2,9.449684E0,8.654192E0,3.24032E0,1.2349906E0,7.725757E0,5.683507E1,1.212621E0,1.4899899E0,1.118398E1,7.435843E0,7.5708704E0,1.8361952E1,3.088091E0,1.5596356E1,3.6622336E0,4.8488674E0,4.373409E1,6.6154686E1],"tree_param":{"num_deleted":"0","num_feature":"11","num_nodes":"51","size_leaf_vector":"1"}},{"base_weights":[-1.6749216E-2,2.5278804E-1,-3.746943E-2,-6.0656775E-2,3.4253228E-1,1.0486166E-2,-1.671054E-1,9.978453E-1,2.0407061E-1,-6.5819E-2,2.2847658E-1,-2.0880732E-3,-3.2031512E-1,1.177025E-2,6.0894858E-2,3.672053E-1,-5.010616E-1,-3.6810112E-1,-7.1833082E-3,7.364243E-1,1.5273969E-1,-1.3693544E-1,6.976377E-1,3.1652418E-1,-5.4855454E-1,5.5452622E-3,4.9861833E-2,-4.0009867E-2,3.6107507E-3,3.0254333E-3,-2.7615443E-2,-4.9085353E-2,9.837775E-4,-2.432043E-2,4.5314204E-2,2.4994513E-2,-1.3844874E-3,2.8976906E-2,-1.36895925E-2,-1.7435709E-2,4.553659E-2,-4.6416996E-3,5.0119467E-2,-6.321175E-2,-2.1639526E-2],"categories":[],"categories_nodes":[],"categories_segments":[],"categories_sizes":[],"default_left":[0,0,0,0,0,0,0,0,0,0,0,0,0,0,0,0,0,0,0,0,0,0,0,0,0,0,0,0,0,0,0,0,0,0,0,0,0,0,0,0,0,0,0,0,0],"id":29,"left_children":[1,3,5,-1,7,9,11,13,15,17,19,21,23,-1,-1,25,27,29,31,33,35,37,39,41,43,-1,-1,-1,-1,-1,-1,-1,-1,-1,-1,-1,-1,-1,-1,-1,-1,-1,-1,-1,-1],"loss_changes":[3.7391758E0,6.7042894E0,3.8624961E0,0E0,3.9542646E0,7.5711985E0,4.240562E0,1.0112591E0,4.6803436E0,5.975122E0,4.4272537E0,7.8112183E0,1.2816806E1,0E0,0E0,5.108505E0,1.3897265E0,4.357864E0,7.4394836E0,3.5669365E0,6.5252233E0,6.9631715E0,3.3001618E0,6.7144594E0,4.788374E0,0E0,0E0,0E0,0E0,0E0,0E0,0E0,0E0,0E0,0E0,0E0,0E0,0E0,0E0,0E0,0E0,0E0,0E0,0E0,0E0],"parents":[2147483647,0,0,1,1,2,2,4,4,5,5,6,6,7,7,8,8,9,9,10,10,11,11,12,12,15,15,16,16,17,17,18,18,19,19,20,20,21,21,22,22,23,23,24,24],"right_children":[2,4,6,-1,8,10,12,14,16,18,20,22,24,-1,-1,26,28,30,32,34,36,38,40,42,44,-1,-1,-1,-1,-1,-1,-1,-1,-1,-1,-1,-1,-1,-1,-1,-1,-1,-1,-1,-1],"split_conditions":[2.150295E4,2.0802955E-3,6.15357E1,-6.0656775E-2,-1.1641505E1,2.6140926E1,2.1897408E-3,2.853601E-3,3.192796E-3,3.3370306E-4,1.3121265E-3,9.706018E-4,2.5393502E-3,1.177025E-2,6.0894858E-2,2.8388505E-3,7.1519005E1,2.3342727E4,1.0157386E-3,3.6923584E1,3.970014E1,6.448562E1,2.2805918E4,8.495242E1,2.2374121E4,5.5452622E-3,4.9861833E-2,-4.0009867E-2,3.6107507E-3,3.0254333E-3,-2.7615443E-2,-4.9085353E-2,9.837775E-4,-2.432043E-2,4.5314204E-2,2.4994513E-2,-1.3844874E-3,2.8976906E-2,-1.36895925E-2,-1.7435709E-2,4.553659E-2,-4.6416996E-3,5.0119467E-2,-6.321175E-2,-2.1639526E-2],"split_indices":[2,6,5,0,4,4,8,8,6,7,8,7,6,0,0,6,3,1,8,4,4,4,1,4,2,0,0,0,0,0,0,0,0,0,0,0,0,0,0,0,0,0,0,0,0],"split_type":[0,0,0,0,0,0,0,0,0,0,0,0,0,0,0,0,0,0,0,0,0,0,0,0,0,0,0,0,0,0,0,0,0,0,0,0,0,0,0,0,0,0,0,0,0],"sum_hessian":[6.668228E2,4.680205E1,6.2002075E2,1.9778153E0,4.4824238E1,4.532656E2,1.6675519E2,6.736238E0,3.8087997E1,3.3625964E2,1.1700595E2,8.0771935E1,8.598326E1,1.9723094E0,4.7639284E0,3.1321018E1,6.7669816E0,5.3772217E1,2.8248743E2,1.4050362E1,1.0295559E2,6.839544E1,1.2376498E1,2.2583473E1,